{"learner":{"attributes":{},"feature_names":["Platelocside","Platelocheight","strikes","balls"],"feature_types":["float","float","int","int"],"gradient_booster":{"model":{"gbtree_model_param":{"num_parallel_tree":"1","num_trees":"100"},"iteration_indptr":[0,1,2,3,4,5,6,7,8,9,10,11,12,13,14,15,16,17,18,19,20,21,22,23,24,25,26,27,28,29,30,31,32,33,34,35,36,37,38,39,40,41,42,43,44,45,46,47,48,49,50,51,52,53,54,55,56,57,58,59,60,61,62,63,64,65,66,67,68,69,70,71,72,73,74,75,76,77,78,79,80,81,82,83,84,85,86,87,88,89,90,91,92,93,94,95,96,97,98,99,100],"tree_info":[0,0,0,0,0,0,0,0,0,0,0,0,0,0,0,0,0,0,0,0,0,0,0,0,0,0,0,0,0,0,0,0,0,0,0,0,0,0,0,0,0,0,0,0,0,0,0,0,0,0,0,0,0,0,0,0,0,0,0,0,0,0,0,0,0,0,0,0,0,0,0,0,0,0,0,0,0,0,0,0,0,0,0,0,0,0,0,0,0,0,0,0,0,0,0,0,0,0,0,0],"trees":[{"base_weights":[4.8568854E-10,-5.263599E-2,8.064445E-3,-2.9355865E-2,-7.8380704E-2,1.2450892E-2,-2.8594246E-2,-2.5167663E-2,-5.2645363E-2,-1.2977038E-1,-5.259997E-2,1.738524E-2,-1.7415857E-2,-2.3299487E-2,-6.994888E-2,-2.9831048E-2,-1.8399099E-2,-4.8756186E-2,-7.249721E-2,-1.2085762E-1,-2.1813336E-1,-4.4199906E-2,-1.2350451E-1,2.287705E-2,-1.3606503E-2,-1.1380071E-2,-3.7716396E-2,-1.8382853E-2,-5.926556E-2,-5.9930667E-2,-1.1828294E-1,-2.4589016E-3,-3.3497747E-3,-1.5289859E-3,-2.6441927E-3,-5.027379E-3,-3.0029218E-3,-8.499375E-3,-6.13838E-3,-1.4737526E-2,-1.007762E-2,-2.5826016E-2,-1.9630099E-2,-3.4732935E-3,-9.972132E-3,-1.1372999E-2,-2.1511618E-2,-7.770054E-4,2.9240225E-3,-5.905901E-4,-3.4663123E-3,-6.5152236E-4,-2.8237393E-3,-3.1384171E-3,-6.058078E-3,-4.7540017E-3,-9.984557E-4,-1.0040599E-2,-4.9711936E-3,-5.523167E-3,-7.154617E-3,-6.390235E-3,-1.2745105E-2],"categories":[],"categories_nodes":[],"categories_segments":[],"categories_sizes":[],"default_left":[0,0,0,0,0,0,0,0,0,0,0,0,0,0,0,0,0,0,0,0,0,0,0,0,0,0,0,0,0,0,0,0,0,0,0,0,0,0,0,0,0,0,0,0,0,0,0,0,0,0,0,0,0,0,0,0,0,0,0,0,0,0,0],"id":0,"left_children":[1,3,5,7,9,11,13,15,17,19,21,23,25,27,29,31,33,35,37,39,41,43,45,47,49,51,53,55,57,59,61,-1,-1,-1,-1,-1,-1,-1,-1,-1,-1,-1,-1,-1,-1,-1,-1,-1,-1,-1,-1,-1,-1,-1,-1,-1,-1,-1,-1,-1,-1,-1,-1],"loss_changes":[4.9882684E2,9.357028E1,1.6386049E2,7.9959717E0,9.821594E1,1.3412755E2,2.3843857E1,2.1929893E0,9.612503E-1,1.9479065E1,2.940062E1,1.3294037E2,1.5811298E1,1.7070808E1,5.9778824E0,7.900009E-1,7.0857143E-1,2.9553795E-1,2.7879047E-1,1.1966675E1,1.9362183E0,2.3199501E1,4.657898E0,1.2939206E2,1.9064423E1,8.157263E0,4.279892E0,2.079736E1,4.5582085E0,5.5496216E-1,1.0493164E0,0E0,0E0,0E0,0E0,0E0,0E0,0E0,0E0,0E0,0E0,0E0,0E0,0E0,0E0,0E0,0E0,0E0,0E0,0E0,0E0,0E0,0E0,0E0,0E0,0E0,0E0,0E0,0E0,0E0,0E0,0E0,0E0],"parents":[2147483647,0,0,1,1,2,2,3,3,4,4,5,5,6,6,7,7,8,8,9,9,10,10,11,11,12,12,13,13,14,14,15,15,16,16,17,17,18,18,19,19,20,20,21,21,22,22,23,23,24,24,25,25,26,26,27,27,28,28,29,29,30,30],"right_children":[2,4,6,8,10,12,14,16,18,20,22,24,26,28,30,32,34,36,38,40,42,44,46,48,50,52,54,56,58,60,62,-1,-1,-1,-1,-1,-1,-1,-1,-1,-1,-1,-1,-1,-1,-1,-1,-1,-1,-1,-1,-1,-1,-1,-1,-1,-1,-1,-1,-1,-1,-1,-1],"split_conditions":[1.5264686E0,2E0,3E0,2E0,1.0461855E0,3.1964667E0,3.2231543E0,1.318936E0,3E0,3E0,1.0075402E0,6.486184E-1,3.6671154E0,6.688374E-1,3.704296E0,1E0,4.7448468E-1,1.4987376E0,4.8892274E-2,7.5151503E-1,7.5151503E-1,3E0,3E0,-6.385287E-1,1.0533242E0,2E0,2E0,-5.0118643E-1,1.8816007E0,3.4984426E0,2E0,-2.4589016E-3,-3.3497747E-3,-1.5289859E-3,-2.6441927E-3,-5.027379E-3,-3.0029218E-3,-8.499375E-3,-6.13838E-3,-1.4737526E-2,-1.007762E-2,-2.5826016E-2,-1.9630099E-2,-3.4732935E-3,-9.972132E-3,-1.1372999E-2,-2.1511618E-2,-7.770054E-4,2.9240225E-3,-5.905901E-4,-3.4663123E-3,-6.5152236E-4,-2.8237393E-3,-3.1384171E-3,-6.058078E-3,-4.7540017E-3,-9.984557E-4,-1.0040599E-2,-4.9711936E-3,-5.523167E-3,-7.154617E-3,-6.390235E-3,-1.2745105E-2],"split_indices":[1,2,3,3,1,1,1,1,3,3,0,0,1,0,1,2,0,1,0,1,1,3,3,0,0,3,3,0,1,1,2,0,0,0,0,0,0,0,0,0,0,0,0,0,0,0,0,0,0,0,0,0,0,0,0,0,0,0,0,0,0,0,0],"split_type":[0,0,0,0,0,0,0,0,0,0,0,0,0,0,0,0,0,0,0,0,0,0,0,0,0,0,0,0,0,0,0,0,0,0,0,0,0,0,0,0,0,0,0,0,0,0,0,0,0,0,0,0,0,0,0,0,0,0,0,0,0,0,0],"sum_hessian":[1.175146E6,1.56125E5,1.019021E6,8.1988E4,7.4137E4,9.1012E5,1.08901E5,6.9493E4,1.2495E4,2.4766E4,4.9371E4,7.81077E5,1.29043E5,9.6542E4,1.2359E4,4.1143E4,2.835E4,1.0451E4,2.044E3,2.2499E4,2.267E3,4.4143E4,5.228E3,6.63503E5,1.17574E5,9.947E4,2.9573E4,8.4933E4,1.1609E4,1.0239E4,2.12E3,1.6937E4,2.4206E4,2.0448E4,7.902E3,9.666E3,7.85E2,9.59E2,1.085E3,9.693E3,1.2806E4,7.95E2,1.472E3,3.7714E4,6.429E3,4.726E3,5.02E2,1.14076E5,5.49427E5,8.6091E4,3.1483E4,7.7194E4,2.2276E4,2.3161E4,6.412E3,1.8992E4,6.5941E4,2.186E3,9.423E3,7.294E3,2.945E3,3.07E2,1.813E3],"tree_param":{"num_deleted":"0","num_feature":"4","num_nodes":"63","size_leaf_vector":"1"}},{"base_weights":[-1.8562932E-7,-4.7373347E-2,7.257933E-3,-2.6420677E-2,-7.0544206E-2,1.5081534E-2,-9.810552E-3,-2.2651039E-2,-4.738264E-2,-1.1679617E-1,-4.734091E-2,1.9825097E-2,-9.530336E-3,-5.282395E-3,-4.2325456E-2,-2.845931E-2,-1.806486E-2,-4.3881334E-2,-6.525465E-2,-1.08772956E-1,-1.9634007E-1,-3.716482E-2,-9.541818E-2,2.5601389E-2,-5.1102997E-3,-3.808031E-3,-2.5514979E-2,-1.9673005E-2,4.947114E-3,-3.5837892E-2,-7.576226E-2,-2.2904684E-3,-3.2214287E-3,-1.4378207E-3,-2.3046497E-3,-4.5246924E-3,-2.7030117E-3,-7.6503227E-3,-5.525108E-3,-1.3912769E-2,-9.393579E-3,-2.3246659E-2,-1.7668422E-2,-2.8711974E-3,-8.631628E-3,-7.518551E-3,-1.2745142E-2,5.8046007E-5,3.2413285E-3,3.0869737E-4,-2.0543912E-3,-9.378974E-4,7.932358E-4,-2.0727422E-3,-4.179825E-3,-4.4334717E-3,-1.5153316E-3,1.8909741E-3,-1.4221905E-3,-2.6451212E-3,-5.5385325E-3,-3.5080921E-3,-8.69844E-3],"categories":[],"categories_nodes":[],"categories_segments":[],"categories_sizes":[],"default_left":[0,0,0,0,0,0,0,0,0,0,0,0,0,0,0,0,0,0,0,0,0,0,0,0,0,0,0,0,0,0,0,0,0,0,0,0,0,0,0,0,0,0,0,0,0,0,0,0,0,0,0,0,0,0,0,0,0,0,0,0,0,0,0],"id":1,"left_children":[1,3,5,7,9,11,13,15,17,19,21,23,25,27,29,31,33,35,37,39,41,43,45,47,49,51,53,55,57,59,61,-1,-1,-1,-1,-1,-1,-1,-1,-1,-1,-1,-1,-1,-1,-1,-1,-1,-1,-1,-1,-1,-1,-1,-1,-1,-1,-1,-1,-1,-1,-1,-1],"loss_changes":[4.040629E2,7.579599E1,1.3607733E2,6.4776154E0,7.9559204E1,8.1576996E1,4.7155434E1,1.8506546E0,7.7908134E-1,1.5784882E1,2.4151146E1,8.4380066E1,1.0327758E1,4.1384926E1,8.490059E0,6.387501E-1,7.128954E-1,2.3929405E-1,2.2588825E-1,1.0120422E1,1.5694275E0,1.692749E1,5.579788E0,8.106961E1,1.3939955E1,5.438307E0,2.3195267E0,1.3019127E1,4.3981297E1,6.015209E0,2.9009476E0,0E0,0E0,0E0,0E0,0E0,0E0,0E0,0E0,0E0,0E0,0E0,0E0,0E0,0E0,0E0,0E0,0E0,0E0,0E0,0E0,0E0,0E0,0E0,0E0,0E0,0E0,0E0,0E0,0E0,0E0,0E0,0E0],"parents":[2147483647,0,0,1,1,2,2,3,3,4,4,5,5,6,6,7,7,8,8,9,9,10,10,11,11,12,12,13,13,14,14,15,15,16,16,17,17,18,18,19,19,20,20,21,21,22,22,23,23,24,24,25,25,26,26,27,27,28,28,29,29,30,30],"right_children":[2,4,6,8,10,12,14,16,18,20,22,24,26,28,30,32,34,36,38,40,42,44,46,48,50,52,54,56,58,60,62,-1,-1,-1,-1,-1,-1,-1,-1,-1,-1,-1,-1,-1,-1,-1,-1,-1,-1,-1,-1,-1,-1,-1,-1,-1,-1,-1,-1,-1,-1,-1,-1],"split_conditions":[1.5264686E0,2E0,2E0,2E0,1.0461855E0,3.1462402E0,3.2231543E0,1.212894E0,3E0,3E0,7.942834E-1,5.648572E-1,3.602813E0,2E0,3.747464E0,1E0,2.3010556E-1,1.4987376E0,4.8892274E-2,6.632926E-1,7.5151503E-1,3E0,2E0,-5.713649E-1,9.289747E-1,2E0,3.9400518E0,-5.804614E-1,3E0,3E0,2E0,-2.2904684E-3,-3.2214287E-3,-1.4378207E-3,-2.3046497E-3,-4.5246924E-3,-2.7030117E-3,-7.6503227E-3,-5.525108E-3,-1.3912769E-2,-9.393579E-3,-2.3246659E-2,-1.7668422E-2,-2.8711974E-3,-8.631628E-3,-7.518551E-3,-1.2745142E-2,5.8046007E-5,3.2413285E-3,3.0869737E-4,-2.0543912E-3,-9.378974E-4,7.932358E-4,-2.0727422E-3,-4.179825E-3,-4.4334717E-3,-1.5153316E-3,1.8909741E-3,-1.4221905E-3,-2.6451212E-3,-5.5385325E-3,-3.5080921E-3,-8.69844E-3],"split_indices":[1,2,3,3,1,1,1,1,3,3,0,0,1,2,1,2,0,1,0,1,1,3,3,0,0,2,1,0,3,3,2,0,0,0,0,0,0,0,0,0,0,0,0,0,0,0,0,0,0,0,0,0,0,0,0,0,0,0,0,0,0,0,0],"split_type":[0,0,0,0,0,0,0,0,0,0,0,0,0,0,0,0,0,0,0,0,0,0,0,0,0,0,0,0,0,0,0,0,0,0,0,0,0,0,0,0,0,0,0,0,0,0,0,0,0,0,0,0,0,0,0,0,0,0,0,0,0,0,0],"sum_hessian":[1.175146E6,1.56125E5,1.019021E6,8.1988E4,7.4137E4,6.98742E5,3.20279E5,6.9493E4,1.2495E4,2.4766E4,4.9371E4,5.85832E5,1.1291E5,2.81129E5,3.915E4,3.0659E4,3.8834E4,1.0451E4,2.044E3,2.2499E4,2.267E3,4.0748E4,8.623E3,4.75648E5,1.10184E5,8.3146E4,2.9764E4,1.16807E5,1.64322E5,3.279E4,6.36E3,1.2369E4,1.829E4,2.232E4,1.6514E4,9.666E3,7.85E2,9.59E2,1.085E3,7.384E3,1.5115E4,7.95E2,1.472E3,3.477E4,5.978E3,5.287E3,3.336E3,1.01784E5,3.73864E5,7.1963E4,3.8221E4,5.6389E4,2.6757E4,2.3003E4,6.761E3,1.809E4,9.8717E4,9.5072E4,6.925E4,2.2154E4,1.0636E4,1.376E3,4.984E3],"tree_param":{"num_deleted":"0","num_feature":"4","num_nodes":"63","size_leaf_vector":"1"}},{"base_weights":[-2.9968487E-7,-4.0142298E-2,7.0029115E-3,-6.663746E-2,-2.791099E-2,1.0620455E-2,-2.312939E-2,-2.8301703E-2,-1.00391775E-1,-1.8597407E-2,-5.132016E-2,1.513008E-2,-1.2587024E-2,-1.8968716E-2,-5.9692774E-2,-2.6132524E-2,-4.292118E-2,-8.393833E-2,-1.291439E-1,-1.5844885E-2,-5.454793E-2,-4.40948E-2,-8.930105E-2,2.0177748E-2,-9.54241E-3,-8.006944E-3,-3.051649E-2,-1.452975E-2,-4.9700588E-2,-5.0263032E-2,-9.895299E-2,-2.02473E-3,-3.0060909E-3,-4.067336E-3,-5.7273726E-3,-1.06288595E-2,-6.4970716E-3,-1.5656685E-2,-1.1016036E-2,-2.5934533E-3,-9.515127E-4,-2.6277292E-3,-8.5581895E-3,-3.4547255E-3,-6.774095E-3,-4.6594595E-3,-1.0406111E-2,-6.342185E-4,2.5856537E-3,-6.263308E-4,-4.7974302E-3,-4.1949828E-4,-2.1152091E-3,-1.8817455E-3,-3.8755704E-3,-4.088254E-3,-6.80303E-4,-7.744634E-3,-3.9111315E-3,-4.5957356E-3,-5.8857333E-3,-9.118809E-3,-1.5031499E-2],"categories":[],"categories_nodes":[],"categories_segments":[],"categories_sizes":[],"default_left":[0,0,0,0,0,0,0,0,0,0,0,0,0,0,0,0,0,0,0,0,0,0,0,0,0,0,0,0,0,0,0,0,0,0,0,0,0,0,0,0,0,0,0,0,0,0,0,0,0,0,0,0,0,0,0,0,0,0,0,0,0,0,0],"id":2,"left_children":[1,3,5,7,9,11,13,15,17,19,21,23,25,27,29,31,33,35,37,39,41,43,45,47,49,51,53,55,57,59,61,-1,-1,-1,-1,-1,-1,-1,-1,-1,-1,-1,-1,-1,-1,-1,-1,-1,-1,-1,-1,-1,-1,-1,-1,-1,-1,-1,-1,-1,-1,-1,-1],"loss_changes":[3.30361E2,5.656888E1,1.0906894E2,7.1339096E1,2.603778E1,9.349409E1,1.6314636E1,8.175621E-1,1.3858643E1,8.453819E0,9.324341E0,9.3153595E1,1.1935497E1,1.3135483E1,4.0514565E0,5.19186E-1,1.0523176E-1,7.899414E0,5.5368805E0,5.0684032E0,5.3285294E0,6.4456673E0,3.4192123E0,9.351607E1,1.6009424E1,5.8012576E0,2.8499317E0,1.7132774E1,3.5676117E0,3.2430267E-1,8.3219147E-1,0E0,0E0,0E0,0E0,0E0,0E0,0E0,0E0,0E0,0E0,0E0,0E0,0E0,0E0,0E0,0E0,0E0,0E0,0E0,0E0,0E0,0E0,0E0,0E0,0E0,0E0,0E0,0E0,0E0,0E0,0E0,0E0],"parents":[2147483647,0,0,1,1,2,2,3,3,4,4,5,5,6,6,7,7,8,8,9,9,10,10,11,11,12,12,13,13,14,14,15,15,16,16,17,17,18,18,19,19,20,20,21,21,22,22,23,23,24,24,25,25,26,26,27,27,28,28,29,29,30,30],"right_children":[2,4,6,8,10,12,14,16,18,20,22,24,26,28,30,32,34,36,38,40,42,44,46,48,50,52,54,56,58,60,62,-1,-1,-1,-1,-1,-1,-1,-1,-1,-1,-1,-1,-1,-1,-1,-1,-1,-1,-1,-1,-1,-1,-1,-1,-1,-1,-1,-1,-1,-1,-1,-1],"split_conditions":[1.5785099E0,1.1086779E0,3E0,2E0,2E0,3.1462402E0,3.2649965E0,2E0,2E0,1.0793039E0,7.33729E-1,6.007096E-1,3.6671154E0,6.486184E-1,3.704296E0,1E0,3E0,8.1934375E-1,8.1934375E-1,1.3375335E0,2E0,3E0,2E0,-6.385287E-1,1.3075961E0,2E0,1E0,-5.0118643E-1,2.0422585E0,3.4984426E0,4.070963E0,-2.02473E-3,-3.0060909E-3,-4.067336E-3,-5.7273726E-3,-1.06288595E-2,-6.4970716E-3,-1.5656685E-2,-1.1016036E-2,-2.5934533E-3,-9.515127E-4,-2.6277292E-3,-8.5581895E-3,-3.4547255E-3,-6.774095E-3,-4.6594595E-3,-1.0406111E-2,-6.342185E-4,2.5856537E-3,-6.263308E-4,-4.7974302E-3,-4.1949828E-4,-2.1152091E-3,-1.8817455E-3,-3.8755704E-3,-4.088254E-3,-6.80303E-4,-7.744634E-3,-3.9111315E-3,-4.5957356E-3,-5.8857333E-3,-9.118809E-3,-1.5031499E-2],"split_indices":[1,1,3,2,3,1,1,3,3,0,0,0,1,0,1,2,3,1,1,1,2,3,2,0,0,3,3,0,1,1,1,0,0,0,0,0,0,0,0,0,0,0,0,0,0,0,0,0,0,0,0,0,0,0,0,0,0,0,0,0,0,0,0],"split_type":[0,0,0,0,0,0,0,0,0,0,0,0,0,0,0,0,0,0,0,0,0,0,0,0,0,0,0,0,0,0,0,0,0,0,0,0,0,0,0,0,0,0,0,0,0,0,0,0,0,0,0,0,0,0,0,0,0,0,0,0,0,0,0],"sum_hessian":[1.175146E6,1.74562E5,1.000584E6,5.5132E4,1.1943E5,8.93335E5,1.07249E5,2.5815E4,2.9317E4,8.5439E4,3.3991E4,7.47988E5,1.45347E5,9.6293E4,1.0956E4,2.2482E4,3.333E3,1.8649E4,1.0668E4,7.9364E4,6.075E3,2.856E4,5.431E3,6.2095E5,1.27038E5,1.15774E5,2.9573E4,8.4141E4,1.2152E4,8.836E3,2.12E3,9.002E3,1.348E4,2.885E3,4.48E2,8.559E3,1.009E4,4.361E3,6.307E3,3.0594E4,4.877E4,3.18E3,2.895E3,2.0347E4,8.213E3,1.396E3,4.035E3,1.09515E5,5.11435E5,1.17052E5,9.986E3,8.9749E4,2.6025E4,1.2222E4,1.7351E4,1.9076E4,6.5065E4,3.355E3,8.797E3,5.891E3,2.945E3,1.844E3,2.76E2],"tree_param":{"num_deleted":"0","num_feature":"4","num_nodes":"63","size_leaf_vector":"1"}},{"base_weights":[-4.0754634E-7,-3.5178706E-2,6.5167886E-3,-5.997477E-2,-2.454372E-2,1.3135158E-2,-7.886695E-3,-2.5472105E-2,-9.035409E-2,-1.6313639E-2,-4.5106158E-2,1.8096592E-2,-4.7292947E-3,-3.0076348E-3,-2.9319914E-2,-2.3519494E-2,-3.8632E-2,-8.364429E-2,-1.5422368E-1,-1.4023286E-2,-5.2872874E-2,-3.9532967E-2,-8.674113E-2,2.3258654E-2,-2.4322234E-3,5.9525185E-4,-1.7801277E-2,-1.6962895E-2,7.0717516E-3,-2.5205974E-2,-6.2636204E-2,-1.8222792E-3,-2.705504E-3,-3.6607438E-3,-5.1559107E-3,-1.0120479E-2,-6.3730213E-3,-1.815495E-2,-1.3081062E-2,-2.4350516E-3,-9.0901117E-4,-2.4166587E-3,-8.298305E-3,-3.0914359E-3,-6.083839E-3,-4.275924E-3,-1.013841E-2,1.7693847E-4,2.9263874E-3,2.7645048E-4,-2.0098472E-3,-5.1557476E-4,1.4338067E-3,-1.4611449E-3,-3.4769557E-3,-3.8539767E-3,-1.2988972E-3,1.1776396E-3,-4.166568E-3,-1.8568579E-3,-3.8602953E-3,-2.6686685E-3,-7.2553935E-3],"categories":[],"categories_nodes":[],"categories_segments":[],"categories_sizes":[],"default_left":[0,0,0,0,0,0,0,0,0,0,0,0,0,0,0,0,0,0,0,0,0,0,0,0,0,0,0,0,0,0,0,0,0,0,0,0,0,0,0,0,0,0,0,0,0,0,0,0,0,0,0,0,0,0,0,0,0,0,0,0,0,0,0],"id":3,"left_children":[1,3,5,7,9,11,13,15,17,19,21,23,25,27,29,31,33,35,37,39,41,43,45,47,49,51,53,55,57,59,61,-1,-1,-1,-1,-1,-1,-1,-1,-1,-1,-1,-1,-1,-1,-1,-1,-1,-1,-1,-1,-1,-1,-1,-1,-1,-1,-1,-1,-1,-1,-1,-1],"loss_changes":[2.6941895E2,4.843628E1,9.4514244E1,5.7786316E1,2.1753685E1,6.021057E1,3.2642365E1,6.6246414E-1,1.2551376E1,7.686495E0,8.522629E0,5.634102E1,1.0277359E1,3.5765434E1,7.9316635E0,4.2053986E-1,8.536911E-2,9.272171E0,1.7586823E0,4.4012604E0,4.675864E0,5.9489784E0,2.788807E0,5.4824203E1,9.807581E0,8.292576E0,2.3126707E0,9.142643E0,3.3852283E1,4.5805817E0,2.2659988E0,0E0,0E0,0E0,0E0,0E0,0E0,0E0,0E0,0E0,0E0,0E0,0E0,0E0,0E0,0E0,0E0,0E0,0E0,0E0,0E0,0E0,0E0,0E0,0E0,0E0,0E0,0E0,0E0,0E0,0E0,0E0,0E0],"parents":[2147483647,0,0,1,1,2,2,3,3,4,4,5,5,6,6,7,7,8,8,9,9,10,10,11,11,12,12,13,13,14,14,15,15,16,16,17,17,18,18,19,19,20,20,21,21,22,22,23,23,24,24,25,25,26,26,27,27,28,28,29,29,30,30],"right_children":[2,4,6,8,10,12,14,16,18,20,22,24,26,28,30,32,34,36,38,40,42,44,46,48,50,52,54,56,58,60,62,-1,-1,-1,-1,-1,-1,-1,-1,-1,-1,-1,-1,-1,-1,-1,-1,-1,-1,-1,-1,-1,-1,-1,-1,-1,-1,-1,-1,-1,-1,-1,-1],"split_conditions":[1.6029003E0,1.1086779E0,2E0,2E0,2E0,3.0231693E0,3.0660856E0,2E0,3E0,1.1383994E0,8.4870565E-1,5.3917307E-1,3.4984426E0,2E0,3.747464E0,1E0,3E0,8.7643677E-1,8.7643677E-1,1.318936E0,2E0,3E0,2E0,-5.713649E-1,1.0292671E0,2E0,3.9400518E0,-5.804614E-1,8.4870565E-1,3E0,2E0,-1.8222792E-3,-2.705504E-3,-3.6607438E-3,-5.1559107E-3,-1.0120479E-2,-6.3730213E-3,-1.815495E-2,-1.3081062E-2,-2.4350516E-3,-9.0901117E-4,-2.4166587E-3,-8.298305E-3,-3.0914359E-3,-6.083839E-3,-4.275924E-3,-1.013841E-2,1.7693847E-4,2.9263874E-3,2.7645048E-4,-2.0098472E-3,-5.1557476E-4,1.4338067E-3,-1.4611449E-3,-3.4769557E-3,-3.8539767E-3,-1.2988972E-3,1.1776396E-3,-4.166568E-3,-1.8568579E-3,-3.8602953E-3,-2.6686685E-3,-7.2553935E-3],"split_indices":[1,1,3,2,3,1,1,3,3,0,0,0,1,2,1,2,3,1,1,1,2,3,2,0,0,2,1,0,0,3,2,0,0,0,0,0,0,0,0,0,0,0,0,0,0,0,0,0,0,0,0,0,0,0,0,0,0,0,0,0,0,0,0],"split_type":[0,0,0,0,0,0,0,0,0,0,0,0,0,0,0,0,0,0,0,0,0,0,0,0,0,0,0,0,0,0,0,0,0,0,0,0,0,0,0,0,0,0,0,0,0,0,0,0,0,0,0,0,0,0,0,0,0,0,0,0,0,0,0],"sum_hessian":[1.175146E6,1.8368E5,9.91466E5,5.5132E4,1.28548E5,6.7932E5,3.12146E5,2.5815E4,2.9317E4,9.1805E4,3.6743E4,5.31663E5,1.47657E5,2.54266E5,5.788E4,2.2482E4,3.333E3,2.6532E4,2.785E3,8.6394E4,5.411E3,3.2407E4,4.336E3,4.24836E5,1.06827E5,1.04921E5,4.2736E4,1.06631E5,1.47635E5,5.152E4,6.36E3,9.002E3,1.348E4,2.885E3,4.48E2,1.4097E4,1.2435E4,1.282E3,1.503E3,2.7927E4,5.8467E4,2.771E3,2.64E3,2.3075E4,9.332E3,1.084E3,3.252E3,9.2791E4,3.32045E5,8.2546E4,2.4281E4,7.3968E4,3.0953E4,3.5975E4,6.761E3,1.6583E4,9.0048E4,1.34639E5,1.2996E4,3.4453E4,1.7067E4,1.376E3,4.984E3],"tree_param":{"num_deleted":"0","num_feature":"4","num_nodes":"63","size_leaf_vector":"1"}},{"base_weights":[-4.7214786E-7,-2.8584171E-2,6.598115E-3,-5.069807E-2,-1.8538272E-2,1.1144945E-2,-1.1364092E-2,-2.2919966E-2,-7.623297E-2,-1.5106212E-2,-5.52992E-2,1.4842619E-2,-1.1773598E-2,-4.92145E-3,-2.6388193E-2,-2.0988705E-2,-3.5458308E-2,-7.0006356E-2,-1.3250037E-1,-1.0069005E-2,-3.2400295E-2,-4.8016988E-2,-9.833275E-2,-1.085983E-2,1.9076277E-2,-4.8479363E-3,-2.7865764E-2,5.297936E-4,-1.5482653E-2,-1.863562E-2,-4.1455537E-2,-1.6334228E-3,-2.4129744E-3,-3.337305E-3,-4.767939E-3,-9.108503E-3,-5.3677345E-3,-1.1918813E-2,-1.7533658E-2,-3.1688423E-3,-6.692486E-4,-2.6730895E-3,-5.7199933E-3,-1.043993E-2,-4.2878003E-3,-8.971622E-3,-1.7833743E-2,-2.727627E-4,-2.8705562E-3,1.2686235E-3,3.2475844E-3,-2.0322006E-4,-3.2499002E-3,-2.3997542E-3,-6.081885E-3,-4.4547618E-4,1.2291888E-3,-1.2754326E-3,-3.1293114E-3,-2.9145845E-3,-1.2296613E-3,-3.544454E-3,-6.7396625E-3],"categories":[],"categories_nodes":[],"categories_segments":[],"categories_sizes":[],"default_left":[0,0,0,0,0,0,0,0,0,0,0,0,0,0,0,0,0,0,0,0,0,0,0,0,0,0,0,0,0,0,0,0,0,0,0,0,0,0,0,0,0,0,0,0,0,0,0,0,0,0,0,0,0,0,0,0,0,0,0,0,0,0,0],"id":4,"left_children":[1,3,5,7,9,11,13,15,17,19,21,23,25,27,29,31,33,35,37,39,41,43,45,47,49,51,53,55,57,59,61,-1,-1,-1,-1,-1,-1,-1,-1,-1,-1,-1,-1,-1,-1,-1,-1,-1,-1,-1,-1,-1,-1,-1,-1,-1,-1,-1,-1,-1,-1,-1,-1],"loss_changes":[2.2164705E2,4.8962708E1,7.7975136E1,4.8832916E1,1.9120457E1,6.4566414E1,1.8667639E1,7.977867E-1,1.255867E1,1.2075134E1,4.050724E0,7.138754E1,1.1796285E1,7.770977E0,6.7603493E0,4.1741276E-1,1.1053848E-1,1.1112564E1,2.01659E0,7.836236E0,4.3945847E0,3.2030315E0,1.2744884E0,1.346463E1,4.8228226E1,5.7614326E0,4.058075E0,5.2196603E0,1.9817905E0,2.5459585E0,3.0636978E0,0E0,0E0,0E0,0E0,0E0,0E0,0E0,0E0,0E0,0E0,0E0,0E0,0E0,0E0,0E0,0E0,0E0,0E0,0E0,0E0,0E0,0E0,0E0,0E0,0E0,0E0,0E0,0E0,0E0,0E0,0E0,0E0],"parents":[2147483647,0,0,1,1,2,2,3,3,4,4,5,5,6,6,7,7,8,8,9,9,10,10,11,11,12,12,13,13,14,14,15,15,16,16,17,17,18,18,19,19,20,20,21,21,22,22,23,23,24,24,25,25,26,26,27,27,28,28,29,29,30,30],"right_children":[2,4,6,8,10,12,14,16,18,20,22,24,26,28,30,32,34,36,38,40,42,44,46,48,50,52,54,56,58,60,62,-1,-1,-1,-1,-1,-1,-1,-1,-1,-1,-1,-1,-1,-1,-1,-1,-1,-1,-1,-1,-1,-1,-1,-1,-1,-1,-1,-1,-1,-1,-1,-1],"split_conditions":[1.6946567E0,1.1888185E0,3.0660856E0,2E0,3E0,6.688374E-1,2E0,2E0,3E0,6.007096E-1,7.33729E-1,-7.0250314E-1,2E0,3.4755738E0,3.4542136E0,1E0,3E0,8.7643677E-1,6.794177E-1,-7.254716E-1,1.2108978E0,-7.755345E-1,1.375676E0,2E0,2E0,1.3075961E0,1.2544847E0,2E0,3.9400518E0,2E0,3.858851E0,-1.6334228E-3,-2.4129744E-3,-3.337305E-3,-4.767939E-3,-9.108503E-3,-5.3677345E-3,-1.1918813E-2,-1.7533658E-2,-3.1688423E-3,-6.692486E-4,-2.6730895E-3,-5.7199933E-3,-1.043993E-2,-4.2878003E-3,-8.971622E-3,-1.7833743E-2,-2.727627E-4,-2.8705562E-3,1.2686235E-3,3.2475844E-3,-2.0322006E-4,-3.2499002E-3,-2.3997542E-3,-6.081885E-3,-4.4547618E-4,1.2291888E-3,-1.2754326E-3,-3.1293114E-3,-2.9145845E-3,-1.2296613E-3,-3.544454E-3,-6.7396625E-3],"split_indices":[1,1,1,2,3,0,3,3,3,0,0,0,3,1,1,2,3,1,0,0,0,0,0,3,2,0,0,2,1,2,1,0,0,0,0,0,0,0,0,0,0,0,0,0,0,0,0,0,0,0,0,0,0,0,0,0,0,0,0,0,0,0,0],"split_type":[0,0,0,0,0,0,0,0,0,0,0,0,0,0,0,0,0,0,0,0,0,0,0,0,0,0,0,0,0,0,0,0,0,0,0,0,0,0,0,0,0,0,0,0,0,0,0,0,0,0,0,0,0,0,0,0,0,0,0,0,0,0,0],"sum_hessian":[1.175146E6,2.20403E5,9.54743E5,6.8847E4,1.51556E5,7.61885E5,1.92858E5,3.2976E4,3.5871E4,1.38616E5,1.294E4,6.5604E5,1.05845E5,1.34978E5,5.788E4,2.8577E4,4.399E3,3.2299E4,3.572E3,1.0735E5,3.1266E4,1.1069E4,1.871E3,9.2779E4,5.63261E5,7.3999E4,3.1846E4,8.9027E4,4.5951E4,3.8218E4,1.9662E4,1.1517E4,1.706E4,3.761E3,6.38E2,1.4097E4,1.8202E4,2.728E3,8.44E2,1.45E4,9.285E4,2.545E4,5.816E3,9.23E2,1.0146E4,1.691E3,1.8E2,6.3736E4,2.9043E4,3.81386E5,1.81875E5,6.7161E4,6.838E3,2.8502E4,3.344E3,6.2529E4,2.6498E4,3.919E4,6.761E3,1.4377E4,2.3841E4,1.5965E4,3.697E3],"tree_param":{"num_deleted":"0","num_feature":"4","num_nodes":"63","size_leaf_vector":"1"}},{"base_weights":[-5.433827E-7,-2.5164155E-2,6.111922E-3,-4.236435E-2,-1.4627662E-2,9.206666E-3,-1.9453803E-2,-1.9796664E-2,-6.416069E-2,-8.078495E-3,-3.0339686E-2,1.4374522E-2,-5.170732E-3,-1.6205234E-2,-4.6472635E-2,-1.7613687E-2,-3.3369113E-2,-8.765279E-2,-5.1699992E-2,-5.6533585E-3,-3.219432E-2,-2.334047E-2,-5.58978E-2,8.332761E-3,2.8895304E-2,6.2080607E-4,-1.4821063E-2,-3.2369655E-2,-9.708035E-3,-3.89046E-2,-7.798242E-2,-1.4039146E-3,-2.008581E-3,-3.1073822E-3,-4.6456587E-3,-7.3434324E-3,-1.1499451E-2,-4.4164103E-3,-9.385803E-3,-9.883678E-4,3.9630686E-4,-1.7285934E-3,-5.1869485E-3,-5.785683E-3,-1.8509738E-3,-5.058808E-3,-9.2866E-3,1.3233877E-3,-8.5453544E-4,3.4453936E-3,-5.6162634E-4,-5.271242E-4,1.2176282E-3,-1.1963982E-3,-3.0580496E-3,-5.1951795E-3,-2.6559096E-3,-5.0550452E-3,-6.212551E-4,-3.7876552E-3,-7.176044E-3,-3.6552043E-3,-8.497391E-3],"categories":[],"categories_nodes":[],"categories_segments":[],"categories_sizes":[],"default_left":[0,0,0,0,0,0,0,0,0,0,0,0,0,0,0,0,0,0,0,0,0,0,0,0,0,0,0,0,0,0,0,0,0,0,0,0,0,0,0,0,0,0,0,0,0,0,0,0,0,0,0,0,0,0,0,0,0,0,0,0,0,0,0],"id":5,"left_children":[1,3,5,7,9,11,13,15,17,19,21,23,25,27,29,31,33,35,37,39,41,43,45,47,49,51,53,55,57,59,61,-1,-1,-1,-1,-1,-1,-1,-1,-1,-1,-1,-1,-1,-1,-1,-1,-1,-1,-1,-1,-1,-1,-1,-1,-1,-1,-1,-1,-1,-1,-1,-1],"loss_changes":[1.8075153E2,4.162169E1,7.48061E1,4.2913437E1,1.4655176E1,6.2664238E1,8.960213E0,1.2694302E0,1.298674E1,5.878881E0,7.494053E0,5.4427597E1,1.246337E1,9.571209E0,2.60985E0,3.2604027E-1,1.7693138E-1,5.970642E0,9.209419E0,3.7158022E0,2.6932917E0,5.483652E0,1.7632923E0,3.6241196E1,3.4969406E1,9.488585E0,3.7654266E0,2.9716587E0,9.280634E0,2.9577255E-1,6.112633E-1,0E0,0E0,0E0,0E0,0E0,0E0,0E0,0E0,0E0,0E0,0E0,0E0,0E0,0E0,0E0,0E0,0E0,0E0,0E0,0E0,0E0,0E0,0E0,0E0,0E0,0E0,0E0,0E0,0E0,0E0,0E0,0E0],"parents":[2147483647,0,0,1,1,2,2,3,3,4,4,5,5,6,6,7,7,8,8,9,9,10,10,11,11,12,12,13,13,14,14,15,15,16,16,17,17,18,18,19,19,20,20,21,21,22,22,23,23,24,24,25,25,26,26,27,27,28,28,29,29,30,30],"right_children":[2,4,6,8,10,12,14,16,18,20,22,24,26,28,30,32,34,36,38,40,42,44,46,48,50,52,54,56,58,60,62,-1,-1,-1,-1,-1,-1,-1,-1,-1,-1,-1,-1,-1,-1,-1,-1,-1,-1,-1,-1,-1,-1,-1,-1,-1,-1,-1,-1,-1,-1,-1,-1],"split_conditions":[1.7164382E0,1.2795432E0,3E0,2E0,2E0,2.943304E0,3.2649965E0,2E0,8.7643677E-1,9.6565783E-1,5.826487E-1,2E0,3.3591928E0,2E0,3.704296E0,1E0,3E0,2E0,8.950455E-1,2E0,2E0,-7.254716E-1,1.2544847E0,4.5108446E-1,7.81657E-1,2E0,3.858851E0,-4.21588E-1,-8.322343E-1,9.1218567E-1,2E0,-1.4039146E-3,-2.008581E-3,-3.1073822E-3,-4.6456587E-3,-7.3434324E-3,-1.1499451E-2,-4.4164103E-3,-9.385803E-3,-9.883678E-4,3.9630686E-4,-1.7285934E-3,-5.1869485E-3,-5.785683E-3,-1.8509738E-3,-5.058808E-3,-9.2866E-3,1.3233877E-3,-8.5453544E-4,3.4453936E-3,-5.6162634E-4,-5.271242E-4,1.2176282E-3,-1.1963982E-3,-3.0580496E-3,-5.1951795E-3,-2.6559096E-3,-5.0550452E-3,-6.212551E-4,-3.7876552E-3,-7.176044E-3,-3.6552043E-3,-8.497391E-3],"split_indices":[1,1,3,2,3,1,1,3,1,0,0,2,1,2,1,2,3,3,0,2,2,0,0,0,0,2,1,0,0,0,2,0,0,0,0,0,0,0,0,0,0,0,0,0,0,0,0,0,0,0,0,0,0,0,0,0,0,0,0,0,0,0,0],"split_type":[0,0,0,0,0,0,0,0,0,0,0,0,0,0,0,0,0,0,0,0,0,0,0,0,0,0,0,0,0,0,0,0,0,0,0,0,0,0,0,0,0,0,0,0,0,0,0,0,0,0,0,0,0,0,0,0,0,0,0,0,0,0,0],"sum_hessian":[1.175146E6,2.29665E5,9.45481E5,8.7243E4,1.42422E5,8.43389E5,1.02092E5,4.2864E4,4.4379E4,1.00523E5,4.1899E4,6.20393E5,2.22996E5,9.1136E4,1.0956E4,3.6927E4,5.937E3,1.5379E4,2.9E4,9.1339E4,9.184E3,3.2893E4,9.006E3,4.38108E5,1.82285E5,1.39361E5,8.3635E4,2.6128E4,6.5008E4,8.836E3,2.12E3,1.51E4,2.1827E4,5.054E3,8.83E2,1.012E4,5.259E3,2.4604E4,4.396E3,6.3434E4,2.7905E4,5.226E3,3.958E3,4.037E3,2.8856E4,7.877E3,1.129E3,3.39518E5,9.859E4,1.56998E5,2.5287E4,9.2299E4,4.7062E4,7.0801E4,1.2834E4,5.977E3,2.0151E4,5.124E3,5.9884E4,8.57E3,2.66E2,3.07E2,1.813E3],"tree_param":{"num_deleted":"0","num_feature":"4","num_nodes":"63","size_leaf_vector":"1"}},{"base_weights":[-5.828102E-7,-2.1445349E-2,5.87052E-3,-3.8128417E-2,-1.2641948E-2,1.1468325E-2,-6.2714047E-3,-1.7817259E-2,-5.7745356E-2,-9.765405E-3,-4.2213127E-2,1.8136688E-2,6.903422E-4,-1.6303519E-2,6.280213E-4,-1.5852412E-2,-3.0033505E-2,-5.2195795E-2,-1.0468724E-1,-4.1481783E-3,-2.0535074E-2,-3.385586E-2,-6.527968E-2,2.2050146E-2,-3.6844006E-3,5.12669E-3,-9.167948E-3,-3.3420686E-2,-1.2933904E-2,5.786677E-3,-2.765185E-2,-1.2635327E-3,-1.8077322E-3,-2.7967053E-3,-4.1816183E-3,-7.665188E-3,-4.173322E-3,-9.865019E-3,-1.826418E-2,-3.9015678E-3,-1.6830709E-4,-1.8198438E-3,-5.6277155E-3,-5.8274693E-3,-2.3632632E-3,9.931892E-3,-6.688317E-3,3.0436355E-4,2.8029927E-3,-9.1465993E-4,8.728684E-4,-1.8145674E-5,2.069038E-3,-6.673066E-4,-2.074267E-3,-2.9065793E-3,-4.855623E-3,-8.3335134E-4,-2.9834586E-3,1.5918525E-3,-7.792436E-4,-2.1191048E-3,-5.5675944E-3],"categories":[],"categories_nodes":[],"categories_segments":[],"categories_sizes":[],"default_left":[0,0,0,0,0,0,0,0,0,0,0,0,0,0,0,0,0,0,0,0,0,0,0,0,0,0,0,0,0,0,0,0,0,0,0,0,0,0,0,0,0,0,0,0,0,0,0,0,0,0,0,0,0,0,0,0,0,0,0,0,0,0,0],"id":6,"left_children":[1,3,5,7,9,11,13,15,17,19,21,23,25,27,29,31,33,35,37,39,41,43,45,47,49,51,53,55,57,59,61,-1,-1,-1,-1,-1,-1,-1,-1,-1,-1,-1,-1,-1,-1,-1,-1,-1,-1,-1,-1,-1,-1,-1,-1,-1,-1,-1,-1,-1,-1,-1,-1],"loss_changes":[1.4795633E2,3.709523E1,6.2705353E1,3.4760704E1,1.4063522E1,4.538331E1,2.0150053E1,1.0284147E0,1.1555832E1,9.115405E0,2.823269E0,3.331279E1,1.0555662E1,6.8418217E0,2.5164347E1,2.6409245E-1,1.4341116E-1,1.0152428E1,2.18964E0,8.511774E0,4.3126736E0,2.684991E0,1.0351849E0,3.7594055E1,4.0223413E0,1.3751244E1,2.1629357E0,1.2846317E0,7.706148E0,2.0070791E1,4.8169575E0,0E0,0E0,0E0,0E0,0E0,0E0,0E0,0E0,0E0,0E0,0E0,0E0,0E0,0E0,0E0,0E0,0E0,0E0,0E0,0E0,0E0,0E0,0E0,0E0,0E0,0E0,0E0,0E0,0E0,0E0,0E0,0E0],"parents":[2147483647,0,0,1,1,2,2,3,3,4,4,5,5,6,6,7,7,8,8,9,9,10,10,11,11,12,12,13,13,14,14,15,15,16,16,17,17,18,18,19,19,20,20,21,21,22,22,23,23,24,24,25,25,26,26,27,27,28,28,29,29,30,30],"right_children":[2,4,6,8,10,12,14,16,18,20,22,24,26,28,30,32,34,36,38,40,42,44,46,48,50,52,54,56,58,60,62,-1,-1,-1,-1,-1,-1,-1,-1,-1,-1,-1,-1,-1,-1,-1,-1,-1,-1,-1,-1,-1,-1,-1,-1,-1,-1,-1,-1,-1,-1,-1,-1],"split_conditions":[1.7678782E0,1.2795432E0,2E0,2E0,3E0,2.7502751E0,2E0,2E0,3E0,3.5656267E-1,4.5880884E-1,6.585943E-1,3.3104331E0,-5.6230545E-1,3.2231543E0,1E0,3E0,8.1934375E-1,1.1383994E0,-9.986527E-1,1.375676E0,-3.7727702E-1,1E0,-5.0991744E-1,2E0,2E0,3.7981584E0,3E0,4.8224476E-1,3E0,3.747464E0,-1.2635327E-3,-1.8077322E-3,-2.7967053E-3,-4.1816183E-3,-7.665188E-3,-4.173322E-3,-9.865019E-3,-1.826418E-2,-3.9015678E-3,-1.6830709E-4,-1.8198438E-3,-5.6277155E-3,-5.8274693E-3,-2.3632632E-3,9.931892E-3,-6.688317E-3,3.0436355E-4,2.8029927E-3,-9.1465993E-4,8.728684E-4,-1.8145674E-5,2.069038E-3,-6.673066E-4,-2.074267E-3,-2.9065793E-3,-4.855623E-3,-8.3335134E-4,-2.9834586E-3,1.5918525E-3,-7.792436E-4,-2.1191048E-3,-5.5675944E-3],"split_indices":[1,1,3,2,3,1,2,3,3,0,0,0,1,0,1,2,3,1,0,0,0,0,2,0,2,2,1,3,0,3,1,0,0,0,0,0,0,0,0,0,0,0,0,0,0,0,0,0,0,0,0,0,0,0,0,0,0,0,0,0,0,0,0],"split_type":[0,0,0,0,0,0,0,0,0,0,0,0,0,0,0,0,0,0,0,0,0,0,0,0,0,0,0,0,0,0,0,0,0,0,0,0,0,0,0,0,0,0,0,0,0,0,0,0,0,0,0,0,0,0,0,0,0,0,0,0,0,0,0],"sum_hessian":[1.175146E6,2.52578E5,9.22568E5,8.7243E4,1.65335E5,6.3145E5,2.91118E5,4.2864E4,4.4379E4,1.50679E5,1.4656E4,3.90096E5,2.41354E5,1.18627E5,1.72491E5,3.6927E4,5.937E3,3.9689E4,4.69E3,9.9029E4,5.165E4,1.076E4,3.896E3,3.30774E5,5.9322E4,1.6645E5,7.4904E4,1.951E4,9.9117E4,1.45881E5,2.661E4,1.51E4,2.1827E4,5.054E3,8.83E2,1.189E4,2.7799E4,4.355E3,3.35E2,6.538E3,9.2491E4,4.8482E4,3.168E3,3.174E3,7.586E3,3.7E1,3.859E3,7.9162E4,2.51612E5,4.1195E4,1.8127E4,1.24119E5,4.2331E4,6.1623E4,1.3281E4,1.5153E4,4.357E3,7.7911E4,2.1206E4,8.3545E4,6.2336E4,2.1626E4,4.984E3],"tree_param":{"num_deleted":"0","num_feature":"4","num_nodes":"63","size_leaf_vector":"1"}},{"base_weights":[-5.9417357E-7,-2.829278E-2,3.6157789E-3,-1.4954918E-2,-4.2485785E-2,8.678255E-3,-7.455207E-3,-1.2755156E-2,-2.7607113E-2,-6.7551695E-2,-3.110032E-2,-1.395674E-2,1.05042765E-2,-5.480283E-3,-3.7844867E-2,-1.0385839E-2,-1.623198E-2,-2.9765831E-2,-2.1624437E-2,-5.459197E-2,-9.1515444E-2,-2.5509646E-2,-7.397465E-2,-3.00422E-2,-9.852495E-3,1.5057367E-2,-1.3210028E-3,-2.2900509E-2,-8.200941E-4,-3.5681874E-2,-1.0613642E-1,-1.3654777E-3,-7.9234823E-4,-1.9125665E-3,-1.3185581E-3,-2.4863116E-3,-3.4237714E-3,4.494815E-4,-2.3086912E-3,-7.562091E-3,-4.644616E-3,-8.152261E-3,-1.2156107E-2,-8.048769E-3,-2.210787E-3,-6.73E-3,-1.364553E-2,-4.1221417E-3,-2.446002E-3,-1.5318514E-3,3.401788E-4,2.1594109E-3,3.505673E-4,2.44517E-4,-1.3585895E-3,-5.4901536E-3,-1.9708707E-3,-1.1359184E-3,6.7170867E-4,-4.9771937E-3,-2.7702982E-3,-2.730761E-3,-1.2631361E-2],"categories":[],"categories_nodes":[],"categories_segments":[],"categories_sizes":[],"default_left":[0,0,0,0,0,0,0,0,0,0,0,0,0,0,0,0,0,0,0,0,0,0,0,0,0,0,0,0,0,0,0,0,0,0,0,0,0,0,0,0,0,0,0,0,0,0,0,0,0,0,0,0,0,0,0,0,0,0,0,0,0,0,0],"id":7,"left_children":[1,3,5,7,9,11,13,15,17,19,21,23,25,27,29,31,33,35,37,39,41,43,45,47,49,51,53,55,57,59,61,-1,-1,-1,-1,-1,-1,-1,-1,-1,-1,-1,-1,-1,-1,-1,-1,-1,-1,-1,-1,-1,-1,-1,-1,-1,-1,-1,-1,-1,-1,-1,-1],"loss_changes":[1.2023538E2,2.5212044E1,5.839849E1,1.9106655E0,1.8412216E1,2.955286E1,1.9622734E1,4.8169613E-1,1.3068771E-1,6.2537994E0,1.0633923E1,3.5235157E0,3.5623383E1,2.492312E1,2.9432564E0,2.7993464E-1,2.0871449E-1,1.6292381E-1,1.0324037E-1,2.2374115E0,2.1133919E0,7.3398113E0,2.1252098E0,6.7607975E-1,3.0810556E0,3.6071472E1,8.4961195E0,6.617138E0,1.9240112E1,2.172884E0,9.6996355E-1,0E0,0E0,0E0,0E0,0E0,0E0,0E0,0E0,0E0,0E0,0E0,0E0,0E0,0E0,0E0,0E0,0E0,0E0,0E0,0E0,0E0,0E0,0E0,0E0,0E0,0E0,0E0,0E0,0E0,0E0,0E0,0E0],"parents":[2147483647,0,0,1,1,2,2,3,3,4,4,5,5,6,6,7,7,8,8,9,9,10,10,11,11,12,12,13,13,14,14,15,15,16,16,17,17,18,18,19,19,20,20,21,21,22,22,23,23,24,24,25,25,26,26,27,27,28,28,29,29,30,30],"right_children":[2,4,6,8,10,12,14,16,18,20,22,24,26,28,30,32,34,36,38,40,42,44,46,48,50,52,54,56,58,60,62,-1,-1,-1,-1,-1,-1,-1,-1,-1,-1,-1,-1,-1,-1,-1,-1,-1,-1,-1,-1,-1,-1,-1,-1,-1,-1,-1,-1,-1,-1,-1,-1],"split_conditions":[1.4549276E0,2E0,2E0,2E0,9.7100013E-1,-8.475248E-1,8.950455E-1,1E0,4.8996967E-1,2E0,9.8621994E-1,-1.2312088E0,4.0641195E-1,-5.0991744E-1,1.6157973E0,1.1370581E0,1.212894E0,-1.2363393E-1,5.140457E-1,5.4157734E-1,3E0,-9.986527E-1,3E0,2.1201198E0,2E0,2.7502751E0,9.289747E-1,-1.1840609E0,2E0,2.096711E0,2E0,-1.3654777E-3,-7.9234823E-4,-1.9125665E-3,-1.3185581E-3,-2.4863116E-3,-3.4237714E-3,4.494815E-4,-2.3086912E-3,-7.562091E-3,-4.644616E-3,-8.152261E-3,-1.2156107E-2,-8.048769E-3,-2.210787E-3,-6.73E-3,-1.364553E-2,-4.1221417E-3,-2.446002E-3,-1.5318514E-3,3.401788E-4,2.1594109E-3,3.505673E-4,2.44517E-4,-1.3585895E-3,-5.4901536E-3,-1.9708707E-3,-1.1359184E-3,6.7170867E-4,-4.9771937E-3,-2.7702982E-3,-2.730761E-3,-1.2631361E-2],"split_indices":[1,2,3,3,1,0,0,3,0,3,0,0,0,0,0,1,1,0,0,1,3,0,3,1,2,1,0,0,2,1,2,0,0,0,0,0,0,0,0,0,0,0,0,0,0,0,0,0,0,0,0,0,0,0,0,0,0,0,0,0,0,0,0],"split_type":[0,0,0,0,0,0,0,0,0,0,0,0,0,0,0,0,0,0,0,0,0,0,0,0,0,0,0,0,0,0,0,0,0,0,0,0,0,0,0,0,0,0,0,0,0,0,0,0,0,0,0,0,0,0,0,0,0,0,0,0,0,0,0],"sum_hessian":[1.175146E6,1.33185E5,1.041961E6,6.8662E4,6.4523E4,7.15007E5,3.26954E5,5.8494E4,1.0168E4,2.0152E4,4.4371E4,5.3375E4,6.61632E5,3.07004E5,1.995E4,3.479E4,2.3704E4,7.469E3,2.699E3,1.3081E4,7.071E3,3.9254E4,5.117E3,1.0849E4,4.2526E4,4.77702E5,1.8393E5,6.4794E4,2.4221E5,1.9339E4,6.11E2,1.4945E4,1.9845E4,1.2154E4,1.155E4,3.566E3,3.903E3,1.43E2,2.556E3,3.65E3,9.431E3,5.309E3,1.762E3,2.286E3,3.6968E4,4.625E3,4.92E2,3.611E3,7.238E3,3.0109E4,1.2417E4,3.05071E5,1.72631E5,1.4072E5,4.321E4,5.875E3,5.8919E4,1.00993E5,1.41217E5,6.99E3,1.2349E4,1.25E2,4.86E2],"tree_param":{"num_deleted":"0","num_feature":"4","num_nodes":"63","size_leaf_vector":"1"}},{"base_weights":[-6.312527E-7,-1.6722227E-2,5.347791E-3,-3.015793E-2,-9.84016E-3,1.1420861E-2,-4.072082E-3,-1.4488774E-2,-4.5592688E-2,-7.3483232E-3,-3.4731336E-2,1.5845358E-2,-2.840601E-3,4.6080706E-4,-1.4233993E-2,-1.2764145E-2,-2.5036452E-2,-3.952276E-2,-7.8871995E-2,-3.442605E-3,-1.8942889E-2,-2.8686928E-2,-6.0432583E-2,-2.8123574E-3,2.2553608E-2,2.4289305E-3,-1.4698377E-2,4.87329E-3,-7.73584E-3,-1.0399256E-2,-3.1394903E-2,-1.004922E-3,-1.4663291E-3,-2.2646827E-3,-3.2922097E-3,-3.4614473E-3,-7.833787E-3,-6.6305897E-3,-1.0220086E-2,-2.1525903E-3,-4.4740118E-5,-1.6412017E-3,-4.8059686E-3,-9.179751E-3,-2.6311176E-3,-5.6985645E-3,-1.1406182E-2,-1.9444413E-3,3.1244077E-4,1.6735476E-3,3.5361499E-3,-3.6964632E-4,1.8750904E-3,-8.5659075E-4,-3.01283E-3,-3.9040174E-6,1.9507997E-3,-5.009734E-4,-1.6581564E-3,-1.9801517E-3,-4.173095E-4,-2.8735239E-3,-7.325675E-3],"categories":[],"categories_nodes":[],"categories_segments":[],"categories_sizes":[],"default_left":[0,0,0,0,0,0,0,0,0,0,0,0,0,0,0,0,0,0,0,0,0,0,0,0,0,0,0,0,0,0,0,0,0,0,0,0,0,0,0,0,0,0,0,0,0,0,0,0,0,0,0,0,0,0,0,0,0,0,0,0,0,0,0],"id":8,"left_children":[1,3,5,7,9,11,13,15,17,19,21,23,25,27,29,31,33,35,37,39,41,43,45,47,49,51,53,55,57,59,61,-1,-1,-1,-1,-1,-1,-1,-1,-1,-1,-1,-1,-1,-1,-1,-1,-1,-1,-1,-1,-1,-1,-1,-1,-1,-1,-1,-1,-1,-1,-1,-1],"loss_changes":[1.05098366E2,2.6332367E1,5.0935585E1,2.3328644E1,1.1680429E1,3.4159195E1,1.6076576E1,8.704567E-1,9.813011E0,7.752157E0,2.6604767E0,5.171254E1,8.009541E0,8.72926E0,7.0845165E0,2.1199274E-1,1.2599802E-1,7.8274765E0,2.190403E0,6.935746E0,3.1778688E0,2.078084E0,5.965023E-1,1.0789152E1,2.2645645E1,8.872763E0,3.7315035E0,1.1279264E1,2.036642E0,5.1513195E0,2.1871452E0,0E0,0E0,0E0,0E0,0E0,0E0,0E0,0E0,0E0,0E0,0E0,0E0,0E0,0E0,0E0,0E0,0E0,0E0,0E0,0E0,0E0,0E0,0E0,0E0,0E0,0E0,0E0,0E0,0E0,0E0,0E0,0E0],"parents":[2147483647,0,0,1,1,2,2,3,3,4,4,5,5,6,6,7,7,8,8,9,9,10,10,11,11,12,12,13,13,14,14,15,15,16,16,17,17,18,18,19,19,20,20,21,21,22,22,23,23,24,24,25,25,26,26,27,27,28,28,29,29,30,30],"right_children":[2,4,6,8,10,12,14,16,18,20,22,24,26,28,30,32,34,36,38,40,42,44,46,48,50,52,54,56,58,60,62,-1,-1,-1,-1,-1,-1,-1,-1,-1,-1,-1,-1,-1,-1,-1,-1,-1,-1,-1,-1,-1,-1,-1,-1,-1,-1,-1,-1,-1,-1,-1,-1],"split_conditions":[1.8356647E0,1.318936E0,2.7502751E0,2E0,3E0,4.5880884E-1,2E0,2E0,9.289747E-1,5.2247536E-1,6.007096E-1,-5.0991744E-1,2E0,3.2649965E0,3.4542136E0,1E0,1.2361321E0,3E0,2E0,-7.254716E-1,1.375676E0,-1.0236276E0,1.375676E0,-9.5493764E-1,2E0,2E0,8.950455E-1,2E0,3.704296E0,2E0,4.070963E0,-1.004922E-3,-1.4663291E-3,-2.2646827E-3,-3.2922097E-3,-3.4614473E-3,-7.833787E-3,-6.6305897E-3,-1.0220086E-2,-2.1525903E-3,-4.4740118E-5,-1.6412017E-3,-4.8059686E-3,-9.179751E-3,-2.6311176E-3,-5.6985645E-3,-1.1406182E-2,-1.9444413E-3,3.1244077E-4,1.6735476E-3,3.5361499E-3,-3.6964632E-4,1.8750904E-3,-8.5659075E-4,-3.01283E-3,-3.9040174E-6,1.9507997E-3,-5.009734E-4,-1.6581564E-3,-1.9801517E-3,-4.173095E-4,-2.8735239E-3,-7.325675E-3],"split_indices":[1,1,1,2,3,0,3,3,0,0,0,0,3,1,1,2,1,3,3,0,0,0,0,0,2,2,0,2,1,2,1,0,0,0,0,0,0,0,0,0,0,0,0,0,0,0,0,0,0,0,0,0,0,0,0,0,0,0,0,0,0,0,0],"split_type":[0,0,0,0,0,0,0,0,0,0,0,0,0,0,0,0,0,0,0,0,0,0,0,0,0,0,0,0,0,0,0,0,0,0,0,0,0,0,0,0,0,0,0,0,0,0,0,0,0,0,0,0,0,0,0,0,0,0,0,0,0,0,0],"sum_hessian":[1.175146E6,2.84783E5,8.90363E5,9.6461E4,1.88322E5,5.4135E5,3.49013E5,4.7868E4,4.8593E4,1.71186E5,1.7136E4,4.13168E5,1.28182E5,2.41354E5,1.07659E5,4.1143E4,6.725E3,4.1099E4,7.494E3,1.28052E5,4.3134E4,1.3875E4,3.261E3,1.09266E5,3.03902E5,8.8745E4,3.9437E4,1.56894E5,8.446E4,8.7997E4,1.9662E4,1.6937E4,2.4206E4,5.164E3,1.561E3,3.6487E4,4.612E3,4.873E3,2.621E3,1.8195E4,1.09857E5,3.9686E4,3.448E3,5.02E2,1.3373E4,3.066E3,1.95E2,2.8742E4,8.0524E4,2.08975E5,9.4927E4,6.4529E4,2.4216E4,2.8222E4,1.1215E4,1.17466E5,3.9428E4,6.4564E4,1.9896E4,3.5056E4,5.2941E4,1.8489E4,1.173E3],"tree_param":{"num_deleted":"0","num_feature":"4","num_nodes":"63","size_leaf_vector":"1"}},{"base_weights":[-6.4100306E-7,-1.6291793E-2,4.4595166E-3,-1.062104E-2,-3.057705E-2,6.895388E-3,-1.5596393E-2,-2.397937E-2,-6.2645935E-3,-5.4008856E-2,-2.2877209E-2,1.0891216E-2,-3.8497846E-3,-1.2969915E-2,-3.6919132E-2,-1.2995049E-2,-3.7471037E-2,-4.948377E-3,-2.9126937E-2,-2.0574301E-2,-6.502279E-2,-1.8225232E-2,-3.988864E-2,5.6941253E-3,2.347858E-2,3.5258345E-4,-1.08521115E-2,-4.599636E-2,-1.1088612E-2,-2.9347375E-2,-5.7633325E-2,-1.1021723E-3,-1.6076834E-3,-5.4887827E-3,-2.804279E-3,-4.5877076E-3,-4.3577078E-4,-7.7664E-4,-5.2523636E-3,-1.9127595E-3,-2.9059341E-3,-9.627818E-3,-5.747745E-3,-3.705473E-3,-1.2802032E-3,-3.5514587E-3,-6.931691E-3,1.3715413E-3,-2.0765931E-4,2.6993237E-3,-1.1480197E-3,-3.9627613E-4,8.815834E-4,-3.9292272E-4,-1.5883361E-3,-6.4237784E-3,-3.8223036E-3,-2.4277556E-3,-5.6619657E-4,-3.6912777E-3,-2.420746E-3,-5.310021E-3,-1.0089083E-2],"categories":[],"categories_nodes":[],"categories_segments":[],"categories_sizes":[],"default_left":[0,0,0,0,0,0,0,0,0,0,0,0,0,0,0,0,0,0,0,0,0,0,0,0,0,0,0,0,0,0,0,0,0,0,0,0,0,0,0,0,0,0,0,0,0,0,0,0,0,0,0,0,0,0,0,0,0,0,0,0,0,0,0],"id":9,"left_children":[1,3,5,7,9,11,13,15,17,19,21,23,25,27,29,31,33,35,37,39,41,43,45,47,49,51,53,55,57,59,61,-1,-1,-1,-1,-1,-1,-1,-1,-1,-1,-1,-1,-1,-1,-1,-1,-1,-1,-1,-1,-1,-1,-1,-1,-1,-1,-1,-1,-1,-1,-1,-1],"loss_changes":[8.5387566E1,2.0460632E1,4.507094E1,1.0521887E1,1.2948135E1,3.5321445E1,5.595131E0,6.588936E0,4.102691E0,6.5354004E0,4.274477E0,3.9228157E1,6.5619926E0,5.5267553E0,1.716836E0,1.4888334E-1,3.2751045E0,3.1165566E0,3.7088552E0,5.345583E-2,3.143299E0,4.3316994E0,1.4906998E0,2.645487E1,2.153122E1,5.089792E0,2.913041E0,6.7731667E-1,6.0237684E0,3.1120205E-1,5.69582E-1,0E0,0E0,0E0,0E0,0E0,0E0,0E0,0E0,0E0,0E0,0E0,0E0,0E0,0E0,0E0,0E0,0E0,0E0,0E0,0E0,0E0,0E0,0E0,0E0,0E0,0E0,0E0,0E0,0E0,0E0,0E0,0E0],"parents":[2147483647,0,0,1,1,2,2,3,3,4,4,5,5,6,6,7,7,8,8,9,9,10,10,11,11,12,12,13,13,14,14,15,15,16,16,17,17,18,18,19,19,20,20,21,21,22,22,23,23,24,24,25,25,26,26,27,27,28,28,29,29,30,30],"right_children":[2,4,6,8,10,12,14,16,18,20,22,24,26,28,30,32,34,36,38,40,42,44,46,48,50,52,54,56,58,60,62,-1,-1,-1,-1,-1,-1,-1,-1,-1,-1,-1,-1,-1,-1,-1,-1,-1,-1,-1,-1,-1,-1,-1,-1,-1,-1,-1,-1,-1,-1,-1,-1],"split_conditions":[1.7678782E0,2E0,3E0,1.1370581E0,1.1888185E0,2.943304E0,3.2649965E0,2E0,1.1383994E0,2E0,5.826487E-1,2E0,3.3591928E0,-9.1510975E-1,3.633769E0,1E0,7.5151503E-1,-1.2903198E0,2E0,3E0,6.632926E-1,-5.0118643E-1,1.2544847E0,1E0,9.289747E-1,2E0,1E0,-1.1840609E0,2E0,-2.0628943E-1,4.070963E0,-1.1021723E-3,-1.6076834E-3,-5.4887827E-3,-2.804279E-3,-4.5877076E-3,-4.3577078E-4,-7.7664E-4,-5.2523636E-3,-1.9127595E-3,-2.9059341E-3,-9.627818E-3,-5.747745E-3,-3.705473E-3,-1.2802032E-3,-3.5514587E-3,-6.931691E-3,1.3715413E-3,-2.0765931E-4,2.6993237E-3,-1.1480197E-3,-3.9627613E-4,8.815834E-4,-3.9292272E-4,-1.5883361E-3,-6.4237784E-3,-3.8223036E-3,-2.4277556E-3,-5.6619657E-4,-3.6912777E-3,-2.420746E-3,-5.310021E-3,-1.0089083E-2],"split_indices":[1,3,3,1,1,1,1,2,0,2,0,2,1,0,1,3,1,0,2,3,1,0,0,3,0,2,3,0,2,0,1,0,0,0,0,0,0,0,0,0,0,0,0,0,0,0,0,0,0,0,0,0,0,0,0,0,0,0,0,0,0,0,0],"split_type":[0,0,0,0,0,0,0,0,0,0,0,0,0,0,0,0,0,0,0,0,0,0,0,0,0,0,0,0,0,0,0,0,0,0,0,0,0,0,0,0,0,0,0,0,0,0,0,0,0,0,0,0,0,0,0,0,0,0,0,0,0,0,0],"sum_hessian":[1.175146E6,2.52578E5,9.22568E5,1.80806E5,7.1772E4,8.22654E5,9.9914E4,4.4463E4,1.36343E5,1.775E4,5.4022E4,5.99658E5,2.22996E5,8.8958E4,1.0956E4,2.451E4,1.9953E4,1.28922E5,7.421E3,4.399E3,1.3351E4,4.2423E4,1.1599E4,4.24423E5,1.75235E5,1.39361E5,8.3635E4,4.793E3,8.4165E4,8.025E3,2.931E3,1.4945E4,9.565E3,7.006E3,1.2947E4,1.833E3,1.27089E5,3.88E3,3.541E3,3.761E3,6.38E2,2.594E3,1.0757E4,9.485E3,3.2938E4,1.01E4,1.499E3,2.08844E5,2.15579E5,1.59227E5,1.6008E4,9.2299E4,4.7062E4,3.5201E4,4.8434E4,1.43E3,3.363E3,2.4534E4,5.9631E4,3.244E3,4.781E3,2.655E3,2.76E2],"tree_param":{"num_deleted":"0","num_feature":"4","num_nodes":"63","size_leaf_vector":"1"}},{"base_weights":[-6.547134E-7,-1.34232445E-2,4.476446E-3,-8.369966E-3,-2.5959367E-2,9.705814E-3,-3.4977326E-3,-2.1020938E-2,-4.627687E-3,-4.446138E-2,-1.8553345E-2,1.3105488E-2,-5.2888105E-3,-1.5176877E-3,-2.0498732E-2,-1.1595564E-2,-3.2805324E-2,-6.66002E-4,-1.198238E-2,-2.0591777E-2,-5.2937604E-2,-1.4319662E-2,-3.5596617E-2,-2.5452347E-3,1.8667175E-2,-4.0612265E-4,-1.642668E-2,-2.0814985E-2,-8.577254E-5,-1.7750086E-2,-5.1875245E-2,-8.5479935E-4,-1.3643425E-3,-2.5581687E-3,-5.4694726E-3,-1.0952661E-3,3.8300853E-4,-1.032096E-3,-3.6423435E-3,-1.8746139E-3,-3.3828428E-3,-4.8491834E-3,-9.761638E-3,-6.5916586E-3,-1.2455779E-3,-2.9351986E-3,-5.0850254E-3,-1.7961639E-3,2.5498992E-4,1.3573243E-3,2.9826253E-3,-5.32639E-4,1.1809621E-3,-3.0254407E-3,-1.1406814E-3,-1.3004099E-3,-2.6062967E-3,2.4946698E-4,-1.1043719E-3,-2.5691297E-3,-1.3218336E-3,-4.7792187E-3,-9.083817E-3],"categories":[],"categories_nodes":[],"categories_segments":[],"categories_sizes":[],"default_left":[0,0,0,0,0,0,0,0,0,0,0,0,0,0,0,0,0,0,0,0,0,0,0,0,0,0,0,0,0,0,0,0,0,0,0,0,0,0,0,0,0,0,0,0,0,0,0,0,0,0,0,0,0,0,0,0,0,0,0,0,0,0,0],"id":10,"left_children":[1,3,5,7,9,11,13,15,17,19,21,23,25,27,29,31,33,35,37,39,41,43,45,47,49,51,53,55,57,59,61,-1,-1,-1,-1,-1,-1,-1,-1,-1,-1,-1,-1,-1,-1,-1,-1,-1,-1,-1,-1,-1,-1,-1,-1,-1,-1,-1,-1,-1,-1,-1,-1],"loss_changes":[7.061969E1,1.8619808E1,3.674675E1,9.917791E0,1.1570087E1,2.71302E1,1.1748737E1,5.3113155E0,4.71048E0,4.8826103E0,4.350918E0,3.7763557E1,5.3492975E0,8.637984E0,3.1390104E0,1.6571927E-1,3.3588333E0,4.8595457E0,2.2978497E0,1.5393472E-1,3.5332985E0,4.644988E0,1.1414518E0,8.934954E0,1.819484E1,4.1103845E0,2.0805979E0,8.848276E-1,8.228841E0,1.2044172E0,4.6210384E-1,0E0,0E0,0E0,0E0,0E0,0E0,0E0,0E0,0E0,0E0,0E0,0E0,0E0,0E0,0E0,0E0,0E0,0E0,0E0,0E0,0E0,0E0,0E0,0E0,0E0,0E0,0E0,0E0,0E0,0E0,0E0,0E0],"parents":[2147483647,0,0,1,1,2,2,3,3,4,4,5,5,6,6,7,7,8,8,9,9,10,10,11,11,12,12,13,13,14,14,15,15,16,16,17,17,18,18,19,19,20,20,21,21,22,22,23,23,24,24,25,25,26,26,27,27,28,28,29,29,30,30],"right_children":[2,4,6,8,10,12,14,16,18,20,22,24,26,28,30,32,34,36,38,40,42,44,46,48,50,52,54,56,58,60,62,-1,-1,-1,-1,-1,-1,-1,-1,-1,-1,-1,-1,-1,-1,-1,-1,-1,-1,-1,-1,-1,-1,-1,-1,-1,-1,-1,-1,-1,-1,-1,-1],"split_conditions":[1.8543298E0,2E0,2.7502751E0,1.1636449E0,1.2993886E0,5.648572E-1,3E0,2E0,3.497087E-1,2E0,6.007096E-1,-4.8442754E-1,2E0,-8.475248E-1,3.633769E0,1E0,7.2217125E-1,-4.761541E-1,1.375676E0,1.2582915E0,1.1074684E0,-1.0779637E0,3E0,-9.5493764E-1,2E0,2E0,2.096711E0,1E0,3.4755738E0,-2.6534614E-1,4.070963E0,-8.5479935E-4,-1.3643425E-3,-2.5581687E-3,-5.4694726E-3,-1.0952661E-3,3.8300853E-4,-1.032096E-3,-3.6423435E-3,-1.8746139E-3,-3.3828428E-3,-4.8491834E-3,-9.761638E-3,-6.5916586E-3,-1.2455779E-3,-2.9351986E-3,-5.0850254E-3,-1.7961639E-3,2.5498992E-4,1.3573243E-3,2.9826253E-3,-5.32639E-4,1.1809621E-3,-3.0254407E-3,-1.1406814E-3,-1.3004099E-3,-2.6062967E-3,2.4946698E-4,-1.1043719E-3,-2.5691297E-3,-1.3218336E-3,-4.7792187E-3,-9.083817E-3],"split_indices":[1,3,1,1,1,0,3,2,0,2,0,0,3,0,1,2,0,0,0,1,0,0,3,0,2,2,1,3,1,0,1,0,0,0,0,0,0,0,0,0,0,0,0,0,0,0,0,0,0,0,0,0,0,0,0,0,0,0,0,0,0,0,0],"split_type":[0,0,0,0,0,0,0,0,0,0,0,0,0,0,0,0,0,0,0,0,0,0,0,0,0,0,0,0,0,0,0,0,0,0,0,0,0,0,0,0,0,0,0,0,0,0,0,0,0,0,0,0,0,0,0,0,0,0,0,0,0,0,0],"sum_hessian":[1.175146E6,2.93929E5,8.81217E5,2.09487E5,8.4442E4,5.32204E5,3.49013E5,4.7821E4,1.61666E5,2.4137E4,6.0305E4,4.33841E5,9.8363E4,3.12606E5,3.6407E4,2.6571E4,2.125E4,1.0507E5,5.6596E4,6.326E3,1.7811E4,4.8307E4,1.1998E4,1.13749E5,3.20092E5,6.8385E4,2.9978E4,2.1593E4,2.91013E5,3.3476E4,2.931E3,1.0681E4,1.589E4,1.5979E4,5.271E3,3.1956E4,7.3114E4,5.2995E4,3.601E3,5.554E3,7.72E2,1.6201E4,1.61E3,1.683E3,4.6624E4,8.515E3,3.483E3,2.8255E4,8.5494E4,2.19772E5,1.0032E5,4.875E4,1.9635E4,7.983E3,2.1995E4,8.679E3,1.2914E4,2.35546E5,5.5467E4,1.2161E4,2.1315E4,2.655E3,2.76E2],"tree_param":{"num_deleted":"0","num_feature":"4","num_nodes":"63","size_leaf_vector":"1"}},{"base_weights":[-6.526954E-7,-1.2348004E-2,3.9486624E-3,-2.20613E-2,-7.00421E-3,6.096206E-3,-1.3672227E-2,-1.0763487E-2,-3.3316948E-2,-5.0419383E-3,-2.6506286E-2,1.0945575E-2,-1.3659344E-3,-1.1355273E-2,-2.9486015E-2,-7.607E-3,-1.40842935E-2,-5.9840865E-2,-2.8365234E-2,-1.0572118E-3,-1.24386875E-2,-2.0434555E-2,-4.3727744E-2,6.402751E-3,2.2088738E-2,-1.7008107E-2,9.017649E-5,-2.3271518E-2,-6.515979E-3,-2.5072077E-2,-5.0782222E-2,-4.9486523E-4,-9.7394467E-4,-1.2182164E-3,-1.8707666E-3,-4.9546077E-3,-8.112147E-3,-2.3774696E-3,-6.035907E-3,-1.1615873E-3,3.6953998E-4,-1.0728555E-3,-3.366392E-3,-5.2771755E-3,-1.5936788E-3,8.16852E-3,-4.5195813E-3,1.3664215E-3,-5.9716316E-5,2.5501766E-3,-1.0893261E-3,-9.92419E-4,-2.1800883E-3,3.073806E-4,-7.9115864E-4,4.9372535E-4,-2.5955813E-3,-3.6417176E-3,-4.3474976E-4,-4.162719E-3,-2.3380555E-3,-1.6088104E-3,-5.664496E-3],"categories":[],"categories_nodes":[],"categories_segments":[],"categories_sizes":[],"default_left":[0,0,0,0,0,0,0,0,0,0,0,0,0,0,0,0,0,0,0,0,0,0,0,0,0,0,0,0,0,0,0,0,0,0,0,0,0,0,0,0,0,0,0,0,0,0,0,0,0,0,0,0,0,0,0,0,0,0,0,0,0,0,0],"id":11,"left_children":[1,3,5,7,9,11,13,15,17,19,21,23,25,27,29,31,33,35,37,39,41,43,45,47,49,51,53,55,57,59,61,-1,-1,-1,-1,-1,-1,-1,-1,-1,-1,-1,-1,-1,-1,-1,-1,-1,-1,-1,-1,-1,-1,-1,-1,-1,-1,-1,-1,-1,-1,-1,-1],"loss_changes":[5.730443E1,1.4781803E1,3.369291E1,1.2852123E1,7.030341E0,2.8719206E1,3.5436516E0,5.2863026E-1,6.6478577E0,4.9198203E0,1.7552595E0,2.4350483E1,7.120169E0,4.864917E0,1.1605692E0,1.4656353E-1,2.1593475E-1,1.7407303E0,6.2648735E0,5.443802E0,2.1208906E0,1.8054428E0,8.095617E-1,1.7369658E1,1.5682411E1,9.036436E-1,6.827738E0,1.8451385E0,3.8903174E0,2.8578043E-1,4.3050528E-1,0E0,0E0,0E0,0E0,0E0,0E0,0E0,0E0,0E0,0E0,0E0,0E0,0E0,0E0,0E0,0E0,0E0,0E0,0E0,0E0,0E0,0E0,0E0,0E0,0E0,0E0,0E0,0E0,0E0,0E0,0E0,0E0],"parents":[2147483647,0,0,1,1,2,2,3,3,4,4,5,5,6,6,7,7,8,8,9,9,10,10,11,11,12,12,13,13,14,14,15,15,16,16,17,17,18,18,19,19,20,20,21,21,22,22,23,23,24,24,25,25,26,26,27,27,28,28,29,29,30,30],"right_children":[2,4,6,8,10,12,14,16,18,20,22,24,26,28,30,32,34,36,38,40,42,44,46,48,50,52,54,56,58,60,62,-1,-1,-1,-1,-1,-1,-1,-1,-1,-1,-1,-1,-1,-1,-1,-1,-1,-1,-1,-1,-1,-1,-1,-1,-1,-1,-1,-1,-1,-1,-1,-1],"split_conditions":[1.8356647E0,1.3375335E0,3E0,2E0,3E0,2.7502751E0,3.2231543E0,1E0,6.632926E-1,3.3582225E-1,4.5880884E-1,2E0,-7.890613E-1,2E0,3.704296E0,1E0,2E0,2E0,9.8621994E-1,-4.6799475E-1,1.3075961E0,-7.1404403E-1,1E0,1E0,9.289747E-1,1E0,3.3591928E0,1E0,-8.797117E-1,-7.623554E-1,2E0,-4.9486523E-4,-9.7394467E-4,-1.2182164E-3,-1.8707666E-3,-4.9546077E-3,-8.112147E-3,-2.3774696E-3,-6.035907E-3,-1.1615873E-3,3.6953998E-4,-1.0728555E-3,-3.366392E-3,-5.2771755E-3,-1.5936788E-3,8.16852E-3,-4.5195813E-3,1.3664215E-3,-5.9716316E-5,2.5501766E-3,-1.0893261E-3,-9.92419E-4,-2.1800883E-3,3.073806E-4,-7.9115864E-4,4.9372535E-4,-2.5955813E-3,-3.6417176E-3,-4.3474976E-4,-4.162719E-3,-2.3380555E-3,-1.6088104E-3,-5.664496E-3],"split_indices":[1,1,3,2,3,1,1,3,1,0,0,2,0,2,1,2,3,3,0,0,0,0,2,3,0,3,1,2,0,0,2,0,0,0,0,0,0,0,0,0,0,0,0,0,0,0,0,0,0,0,0,0,0,0,0,0,0,0,0,0,0,0,0],"split_type":[0,0,0,0,0,0,0,0,0,0,0,0,0,0,0,0,0,0,0,0,0,0,0,0,0,0,0,0,0,0,0,0,0,0,0,0,0,0,0,0,0,0,0,0,0,0,0,0,0,0,0,0,0,0,0,0,0,0,0,0,0,0,0],"sum_hessian":[1.175146E6,2.84783E5,8.90363E5,1.01069E5,1.83714E5,7.93639E5,9.6724E4,5.0441E4,5.0628E4,1.6692E5,1.6794E4,4.81033E5,3.12606E5,8.4365E4,1.2359E4,2.5862E4,2.4579E4,7.963E3,4.2665E4,1.08481E5,5.8439E4,1.2418E4,4.376E3,3.41722E5,1.39311E5,2.6621E4,2.85985E5,2.4365E4,6E4,1.0239E4,2.12E3,1.1513E4,1.4349E4,1.7417E4,7.162E3,5.369E3,2.594E3,3.7313E4,5.352E3,3.3672E4,7.4809E4,5.4083E4,4.356E3,1.515E3,1.0903E4,5E1,4.326E3,1.67727E5,1.73995E5,1.26247E5,1.3064E4,1.0744E4,1.5877E4,2.08312E5,7.7673E4,2.117E3,2.2248E4,4.056E3,5.5944E4,9.47E2,9.292E3,3.07E2,1.813E3],"tree_param":{"num_deleted":"0","num_feature":"4","num_nodes":"63","size_leaf_vector":"1"}},{"base_weights":[-6.3434726E-7,-1.0825254E-2,3.685E-3,-6.539882E-3,-2.144178E-2,7.533436E-3,-4.643821E-3,-1.4479529E-2,-2.5580719E-3,-4.398595E-2,-1.7047256E-2,1.2179098E-2,6.3771836E-4,-1.585597E-2,-1.6555542E-3,-8.658596E-3,-2.2493249E-2,8.957019E-4,-8.694009E-3,-1.4158695E-2,-5.330267E-2,-1.336897E-2,-3.1453848E-2,8.170413E-3,2.6085207E-2,-1.4825789E-2,1.7686685E-3,-2.7147453E-2,-1.1594814E-2,2.0658777E-3,-1.5769158E-2,-7.1608555E-4,-1.0886798E-3,-4.154454E-3,-1.6657299E-3,-2.9032904E-4,1.0553746E-3,-7.4453E-4,-2.895381E-3,-1.7023167E-3,-9.915313E-4,-4.5951707E-3,-7.4085775E-3,-3.5291784E-3,-9.7031204E-4,-2.796178E-3,-6.113754E-3,1.2270235E-3,-3.91413E-4,2.8173071E-3,-3.1208848E-3,-1.8635256E-3,-6.7908573E-4,3.6171693E-4,-8.477213E-4,-4.2450083E-3,-2.3837877E-3,-7.599491E-4,-2.3459422E-3,5.7896855E-4,-1.2066722E-3,-1.0780051E-3,-2.5377295E-3],"categories":[],"categories_nodes":[],"categories_segments":[],"categories_sizes":[],"default_left":[0,0,0,0,0,0,0,0,0,0,0,0,0,0,0,0,0,0,0,0,0,0,0,0,0,0,0,0,0,0,0,0,0,0,0,0,0,0,0,0,0,0,0,0,0,0,0,0,0,0,0,0,0,0,0,0,0,0,0,0,0,0,0],"id":12,"left_children":[1,3,5,7,9,11,13,15,17,19,21,23,25,27,29,31,33,35,37,39,41,43,45,47,49,51,53,55,57,59,61,-1,-1,-1,-1,-1,-1,-1,-1,-1,-1,-1,-1,-1,-1,-1,-1,-1,-1,-1,-1,-1,-1,-1,-1,-1,-1,-1,-1,-1,-1,-1,-1],"loss_changes":[4.6883224E1,1.3579891E1,2.8099497E1,6.722843E0,8.503197E0,1.9208416E1,9.282673E0,3.3130255E0,3.0014076E0,3.8902931E0,3.806284E0,1.9970512E1,4.2209525E0,2.8048725E0,1.1489608E1,1.372304E-1,3.3218822E0,3.324991E0,1.290215E0,4.035616E-2,1.6265602E0,4.5987473E0,1.5127258E0,1.3777771E1,9.590149E0,5.033581E-1,4.2596617E0,8.079443E-1,2.0063887E0,9.110344E0,2.187767E0,0E0,0E0,0E0,0E0,0E0,0E0,0E0,0E0,0E0,0E0,0E0,0E0,0E0,0E0,0E0,0E0,0E0,0E0,0E0,0E0,0E0,0E0,0E0,0E0,0E0,0E0,0E0,0E0,0E0,0E0,0E0,0E0],"parents":[2147483647,0,0,1,1,2,2,3,3,4,4,5,5,6,6,7,7,8,8,9,9,10,10,11,11,12,12,13,13,14,14,15,15,16,16,17,17,18,18,19,19,20,20,21,21,22,22,23,23,24,24,25,25,26,26,27,27,28,28,29,29,30,30],"right_children":[2,4,6,8,10,12,14,16,18,20,22,24,26,28,30,32,34,36,38,40,42,44,46,48,50,52,54,56,58,60,62,-1,-1,-1,-1,-1,-1,-1,-1,-1,-1,-1,-1,-1,-1,-1,-1,-1,-1,-1,-1,-1,-1,-1,-1,-1,-1,-1,-1,-1,-1,-1,-1],"split_conditions":[1.8632956E0,2E0,2E0,1.318936E0,1.1086779E0,2.7502751E0,-4.92751E-1,2E0,3.2235184E-1,2E0,6.007096E-1,2E0,-8.475248E-1,-9.1510975E-1,5.563155E-1,1E0,7.5151503E-1,2E0,1.375676E0,9.7100013E-1,3E0,-6.6932154E-1,1.3075961E0,4.0641195E-1,1.2544847E0,2E0,3.5470233E0,-1.2903198E0,3.0025964E0,3.0879147E0,8.950455E-1,-7.1608555E-4,-1.0886798E-3,-4.154454E-3,-1.6657299E-3,-2.9032904E-4,1.0553746E-3,-7.4453E-4,-2.895381E-3,-1.7023167E-3,-9.915313E-4,-4.5951707E-3,-7.4085775E-3,-3.5291784E-3,-9.7031204E-4,-2.796178E-3,-6.113754E-3,1.2270235E-3,-3.91413E-4,2.8173071E-3,-3.1208848E-3,-1.8635256E-3,-6.7908573E-4,3.6171693E-4,-8.477213E-4,-4.2450083E-3,-2.3837877E-3,-7.599491E-4,-2.3459422E-3,5.7896855E-4,-1.2066722E-3,-1.0780051E-3,-2.5377295E-3],"split_indices":[1,3,3,1,1,1,0,2,0,2,0,2,0,0,0,3,1,2,0,1,3,0,0,0,0,2,1,0,1,1,0,0,0,0,0,0,0,0,0,0,0,0,0,0,0,0,0,0,0,0,0,0,0,0,0,0,0,0,0,0,0,0,0],"split_type":[0,0,0,0,0,0,0,0,0,0,0,0,0,0,0,0,0,0,0,0,0,0,0,0,0,0,0,0,0,0,0,0,0,0,0,0,0,0,0,0,0,0,0,0,0,0,0,0,0,0,0,0,0,0,0,0,0,0,0,0,0,0,0],"sum_hessian":[1.175146E6,2.98489E5,8.76657E5,2.12653E5,8.5836E4,5.99603E5,2.77054E5,7.1026E4,1.41627E5,1.4001E4,7.1835E4,3.58249E5,2.41354E5,5.8301E4,2.18753E5,4.1143E4,2.9883E4,9.062E4,5.1007E4,3.333E3,1.0668E4,5.7226E4,1.4609E4,2.78087E5,8.0162E4,1.6448E4,2.24906E5,1.5972E4,4.2329E4,1.73109E5,4.5644E4,2.4607E4,1.6536E4,7.006E3,2.2877E4,6.5038E4,2.5582E4,4.8047E4,2.96E3,1.988E3,1.345E3,7.883E3,2.785E3,8.197E3,4.9029E4,1.3073E4,1.536E3,2.07642E5,7.0445E4,7.7344E4,2.818E3,1.1157E4,5.291E3,1.90532E5,3.4374E4,2.838E3,1.3134E4,3.1667E4,1.0662E4,1.37009E5,3.61E4,3.0045E4,1.5599E4],"tree_param":{"num_deleted":"0","num_feature":"4","num_nodes":"63","size_leaf_vector":"1"}},{"base_weights":[-6.1787824E-7,-9.557084E-3,3.3892244E-3,-7.676208E-3,-3.0188993E-2,1.0234094E-2,-6.3222635E-4,-2.3129812E-2,-5.5063204E-3,-5.4485828E-2,-2.2920148E-2,1.4445024E-2,3.4650376E-3,-5.5733933E-3,4.960745E-3,-9.320257E-3,-3.539053E-2,-3.380149E-2,-4.6501793E-3,-5.0994214E-2,-1.0399127E-1,-1.6825909E-2,-3.4357473E-2,1.1657694E-2,3.0114315E-2,1.2633578E-3,1.1028735E-2,-1.7456993E-2,-3.1626432E-3,9.122171E-3,-1.1931235E-2,-5.730018E-4,-1.1512507E-3,-5.1840744E-3,-2.9246083E-3,-1.162178E-3,-5.5470797E-3,-5.7364377E-5,-1.1881076E-3,-8.169477E-3,-4.5823473E-3,-9.6067967E-4,-1.1418217E-2,-3.7565369E-3,-1.0402543E-3,-3.2742526E-3,-8.4253475E-3,1.5479642E-3,4.127909E-5,3.221981E-3,-3.1700244E-3,-2.509219E-3,1.9492849E-4,1.6084975E-3,-1.3590963E-3,-2.5913906E-3,-1.4337626E-3,-5.5635064E-5,-1.9251028E-3,1.4762221E-3,-5.370788E-4,-8.414443E-4,-3.655523E-3],"categories":[],"categories_nodes":[],"categories_segments":[],"categories_sizes":[],"default_left":[0,0,0,0,0,0,0,0,0,0,0,0,0,0,0,0,0,0,0,0,0,0,0,0,0,0,0,0,0,0,0,0,0,0,0,0,0,0,0,0,0,0,0,0,0,0,0,0,0,0,0,0,0,0,0,0,0,0,0,0,0,0,0],"id":13,"left_children":[1,3,5,7,9,11,13,15,17,19,21,23,25,27,29,31,33,35,37,39,41,43,45,47,49,51,53,55,57,59,61,-1,-1,-1,-1,-1,-1,-1,-1,-1,-1,-1,-1,-1,-1,-1,-1,-1,-1,-1,-1,-1,-1,-1,-1,-1,-1,-1,-1,-1,-1,-1,-1],"loss_changes":[3.806882E1,1.1940359E1,2.3877674E1,9.455826E0,4.5388603E0,9.150566E0,1.5100811E1,5.8782883E0,5.989971E0,1.0178185E0,1.3787508E0,8.643501E0,2.0502667E0,8.3113E0,1.801707E1,1.2846267E-1,1.857399E0,3.4896097E0,7.0748587E0,8.742733E-1,3.730669E-1,1.7197092E0,5.51466E-1,7.2212334E0,3.890953E0,1.7240015E0,3.4556208E0,1.2903614E0,1.0113295E1,1.6809711E1,4.3868947E0,0E0,0E0,0E0,0E0,0E0,0E0,0E0,0E0,0E0,0E0,0E0,0E0,0E0,0E0,0E0,0E0,0E0,0E0,0E0,0E0,0E0,0E0,0E0,0E0,0E0,0E0,0E0,0E0,0E0,0E0,0E0,0E0],"parents":[2147483647,0,0,1,1,2,2,3,3,4,4,5,5,6,6,7,7,8,8,9,9,10,10,11,11,12,12,13,13,14,14,15,15,16,16,17,17,18,18,19,19,20,20,21,21,22,22,23,23,24,24,25,25,26,26,27,27,28,28,29,29,30,30],"right_children":[2,4,6,8,10,12,14,16,18,20,22,24,26,28,30,32,34,36,38,40,42,44,46,48,50,52,54,56,58,60,62,-1,-1,-1,-1,-1,-1,-1,-1,-1,-1,-1,-1,-1,-1,-1,-1,-1,-1,-1,-1,-1,-1,-1,-1,-1,-1,-1,-1,-1,-1,-1,-1],"split_conditions":[1.8816007E0,3E0,1E0,9.7100013E-1,1.2993886E0,2.7919903E0,2E0,2E0,-1.108955E0,1.1383994E0,3.0884087E-1,2E0,2E0,-5.713649E-1,3.1964667E0,1E0,5.4157734E-1,2E0,3.497087E-1,7.5151503E-1,2E0,-5.268544E-1,1.375676E0,4.0641195E-1,1.3075961E0,-1.0779637E0,3.704296E0,-9.5493764E-1,6.486184E-1,3E0,3.858851E0,-5.730018E-4,-1.1512507E-3,-5.1840744E-3,-2.9246083E-3,-1.162178E-3,-5.5470797E-3,-5.7364377E-5,-1.1881076E-3,-8.169477E-3,-4.5823473E-3,-9.6067967E-4,-1.1418217E-2,-3.7565369E-3,-1.0402543E-3,-3.2742526E-3,-8.4253475E-3,1.5479642E-3,4.127909E-5,3.221981E-3,-3.1700244E-3,-2.509219E-3,1.9492849E-4,1.6084975E-3,-1.3590963E-3,-2.5913906E-3,-1.4337626E-3,-5.5635064E-5,-1.9251028E-3,1.4762221E-3,-5.370788E-4,-8.414443E-4,-3.655523E-3],"split_indices":[1,3,3,1,1,1,2,2,0,0,0,2,2,0,1,2,1,2,0,1,2,0,0,0,0,0,1,0,0,3,1,0,0,0,0,0,0,0,0,0,0,0,0,0,0,0,0,0,0,0,0,0,0,0,0,0,0,0,0,0,0,0,0],"split_type":[0,0,0,0,0,0,0,0,0,0,0,0,0,0,0,0,0,0,0,0,0,0,0,0,0,0,0,0,0,0,0,0,0,0,0,0,0,0,0,0,0,0,0,0,0,0,0,0,0,0,0,0,0,0,0,0,0,0,0,0,0,0,0],"sum_hessian":[1.175146E6,3.07698E5,8.67448E5,2.81992E5,2.5706E4,3.21028E5,5.4642E5,3.4719E4,2.47273E5,5.918E3,1.9788E4,1.9791E5,1.23118E5,2.90115E5,2.56305E5,1.6329E4,1.839E4,7.261E3,2.40012E5,5.53E3,3.88E2,1.2911E4,6.877E3,1.68023E5,2.9887E4,9.5361E4,2.7757E4,4.8927E4,2.41188E5,2.05644E5,5.0661E4,6.192E3,1.0137E4,4.999E3,1.3391E4,3.589E3,3.672E3,1.53484E5,8.6528E4,7.95E2,4.735E3,3.8E1,3.5E2,3.052E3,9.859E3,6.663E3,2.14E2,1.25401E5,4.2622E4,2.8903E4,9.84E2,2.418E3,9.2943E4,2.3028E4,4.729E3,1.3182E4,3.5745E4,2.07564E5,3.3624E4,1.48035E5,5.7609E4,4.4331E4,6.33E3],"tree_param":{"num_deleted":"0","num_feature":"4","num_nodes":"63","size_leaf_vector":"1"}},{"base_weights":[-6.156432E-7,-1.1956744E-2,2.2143987E-3,-7.935715E-3,-2.2490421E-2,3.930381E-3,-1.2050231E-2,-1.6981922E-2,-5.55619E-3,-4.197675E-2,-1.825474E-2,-1.18303355E-2,5.4369518E-3,-1.0391287E-2,-2.824829E-2,-7.78188E-3,-2.7251026E-2,-3.79307E-2,-5.094735E-3,-1.3712238E-2,-4.992021E-2,-1.6386015E-2,-4.682107E-2,-2.5382997E-2,-8.063941E-3,8.530697E-3,-3.984962E-3,-1.8035572E-2,-5.913122E-3,-2.5514962E-2,-7.534352E-2,-4.904647E-4,-9.6741115E-4,-2.3434488E-3,-5.0839493E-3,-7.3210424E-4,-6.5426775E-3,-3.184073E-4,-1.3788756E-3,-9.236784E-4,-1.9457979E-3,-4.318093E-3,-7.0190015E-3,-5.0840103E-3,-1.5028319E-3,-6.5675566E-5,-5.9459056E-3,-3.457452E-3,-2.2070177E-3,-1.2092987E-3,-5.720847E-5,1.2828574E-3,1.3579059E-4,4.563476E-5,-1.0541485E-3,-4.5120814E-3,-1.6394897E-3,-4.3381882E-4,-3.4114388E-3,-3.6442054E-3,-2.143562E-3,-6.191474E-3,-1.2106625E-2],"categories":[],"categories_nodes":[],"categories_segments":[],"categories_sizes":[],"default_left":[0,0,0,0,0,0,0,0,0,0,0,0,0,0,0,0,0,0,0,0,0,0,0,0,0,0,0,0,0,0,0,0,0,0,0,0,0,0,0,0,0,0,0,0,0,0,0,0,0,0,0,0,0,0,0,0,0,0,0,0,0,0,0],"id":14,"left_children":[1,3,5,7,9,11,13,15,17,19,21,23,25,27,29,31,33,35,37,39,41,43,45,47,49,51,53,55,57,59,61,-1,-1,-1,-1,-1,-1,-1,-1,-1,-1,-1,-1,-1,-1,-1,-1,-1,-1,-1,-1,-1,-1,-1,-1,-1,-1,-1,-1,-1,-1,-1,-1],"loss_changes":[3.1121439E1,7.779854E0,2.4269032E1,2.8614645E0,4.18762E0,2.1014183E1,2.8605452E0,2.6153612E0,1.5722203E0,2.0334482E0,2.2245398E0,3.941311E0,2.3546276E1,3.30585E0,1.271184E0,7.946241E-2,1.1765318E0,1.2443147E0,1.7237973E0,5.0967008E-2,9.630337E-1,1.8295708E0,1.4929423E0,5.1055145E-1,1.8239546E0,1.874672E1,5.814538E0,1.584588E0,2.7047338E0,4.1595364E-1,3.2529283E-1,0E0,0E0,0E0,0E0,0E0,0E0,0E0,0E0,0E0,0E0,0E0,0E0,0E0,0E0,0E0,0E0,0E0,0E0,0E0,0E0,0E0,0E0,0E0,0E0,0E0,0E0,0E0,0E0,0E0,0E0,0E0,0E0],"parents":[2147483647,0,0,1,1,2,2,3,3,4,4,5,5,6,6,7,7,8,8,9,9,10,10,11,11,12,12,13,13,14,14,15,15,16,16,17,17,18,18,19,19,20,20,21,21,22,22,23,23,24,24,25,25,26,26,27,27,28,28,29,29,30,30],"right_children":[2,4,6,8,10,12,14,16,18,20,22,24,26,28,30,32,34,36,38,40,42,44,46,48,50,52,54,56,58,60,62,-1,-1,-1,-1,-1,-1,-1,-1,-1,-1,-1,-1,-1,-1,-1,-1,-1,-1,-1,-1,-1,-1,-1,-1,-1,-1,-1,-1,-1,-1,-1,-1],"split_conditions":[1.6029003E0,2E0,3E0,9.7100013E-1,9.7100013E-1,-8.027382E-1,7.33729E-1,2E0,-1.2903198E0,2E0,1.0793039E0,-1.1840609E0,4.5880884E-1,-2.6534614E-1,1.375676E0,1E0,1.0533242E0,2E0,7.454111E-1,8.1934375E-1,3E0,-1.0236276E0,2E0,2.0812187E0,2E0,2.7502751E0,7.942834E-1,-1.1438668E0,3.4755738E0,2.0732796E0,1.6157973E0,-4.904647E-4,-9.6741115E-4,-2.3434488E-3,-5.0839493E-3,-7.3210424E-4,-6.5426775E-3,-3.184073E-4,-1.3788756E-3,-9.236784E-4,-1.9457979E-3,-4.318093E-3,-7.0190015E-3,-5.0840103E-3,-1.5028319E-3,-6.5675566E-5,-5.9459056E-3,-3.457452E-3,-2.2070177E-3,-1.2092987E-3,-5.720847E-5,1.2828574E-3,1.3579059E-4,4.563476E-5,-1.0541485E-3,-4.5120814E-3,-1.6394897E-3,-4.3381882E-4,-3.4114388E-3,-3.6442054E-3,-2.143562E-3,-6.191474E-3,-1.2106625E-2],"split_indices":[1,3,3,1,1,0,0,2,0,2,0,0,0,0,0,2,0,2,0,1,3,0,2,1,2,1,0,0,1,1,0,0,0,0,0,0,0,0,0,0,0,0,0,0,0,0,0,0,0,0,0,0,0,0,0,0,0,0,0,0,0,0,0],"split_type":[0,0,0,0,0,0,0,0,0,0,0,0,0,0,0,0,0,0,0,0,0,0,0,0,0,0,0,0,0,0,0,0,0,0,0,0,0,0,0,0,0,0,0,0,0,0,0,0,0,0,0,0,0,0,0,0,0,0,0,0,0,0,0],"sum_hessian":[1.175146E6,1.8368E5,9.91466E5,1.32936E5,5.0744E4,8.85004E5,1.06462E5,2.7684E4,1.05252E5,9.059E3,4.1685E4,7.7216E4,8.07788E5,9.6573E4,9.889E3,1.4603E4,1.3081E4,1.478E3,1.03774E5,1.988E3,7.071E3,3.9127E4,2.558E3,1.6791E4,6.0425E4,6.08111E5,1.99677E5,3.5674E4,6.0899E4,9.348E3,5.41E2,5.795E3,8.808E3,1.1261E4,1.82E3,7E2,7.78E2,8.5078E4,1.8696E4,1.119E3,8.69E2,5.309E3,1.762E3,1.482E3,3.7645E4,5.5E2,2.008E3,4.446E3,1.2345E4,3.9293E4,2.1132E4,3.80261E5,2.2785E5,1.19041E5,8.0636E4,2.036E3,3.3638E4,5.7679E4,3.22E3,2.539E3,6.809E3,4.2E2,1.21E2],"tree_param":{"num_deleted":"0","num_feature":"4","num_nodes":"63","size_leaf_vector":"1"}},{"base_weights":[-6.259961E-7,-7.4936775E-3,3.106352E-3,-4.1287714E-3,-1.5697796E-2,9.265342E-3,-5.1606476E-4,-1.0641481E-2,-1.2817404E-3,-3.1177878E-2,-1.2364187E-2,1.4177829E-2,3.8915076E-3,-5.1364955E-3,4.7085714E-3,-6.407652E-3,-1.6548108E-2,-4.2617475E-3,6.100025E-3,-1.0509555E-2,-3.7986554E-2,-9.53493E-3,-2.3858568E-2,-3.3364652E-3,1.6388878E-2,1.8253487E-3,1.1491094E-2,-1.5735252E-2,-2.9810944E-3,8.43016E-3,-1.1263476E-2,-4.880456E-4,-8.674931E-4,-1.2612423E-3,-3.995926E-3,-9.6647476E-5,-8.8299246E-4,8.3840947E-4,-5.725862E-3,-5.083387E-4,-1.2457517E-3,-3.0423151E-3,-5.621675E-3,-2.2083235E-3,-5.935985E-4,-2.1071394E-3,-4.9262648E-3,-6.385306E-4,1.0486407E-3,2.1474264E-3,4.4661044E-4,-2.1598132E-3,2.4400314E-4,1.6728953E-3,-8.38814E-4,-1.2076151E-3,-2.1973872E-3,1.2285709E-5,-1.2972191E-3,1.3112733E-3,-3.579765E-4,-7.89879E-4,-3.255206E-3],"categories":[],"categories_nodes":[],"categories_segments":[],"categories_sizes":[],"default_left":[0,0,0,0,0,0,0,0,0,0,0,0,0,0,0,0,0,0,0,0,0,0,0,0,0,0,0,0,0,0,0,0,0,0,0,0,0,0,0,0,0,0,0,0,0,0,0,0,0,0,0,0,0,0,0,0,0,0,0,0,0,0,0],"id":15,"left_children":[1,3,5,7,9,11,13,15,17,19,21,23,25,27,29,31,33,35,37,39,41,43,45,47,49,51,53,55,57,59,61,-1,-1,-1,-1,-1,-1,-1,-1,-1,-1,-1,-1,-1,-1,-1,-1,-1,-1,-1,-1,-1,-1,-1,-1,-1,-1,-1,-1,-1,-1,-1,-1],"loss_changes":[2.7358324E1,9.508797E0,1.8533278E1,4.5291195E0,5.1695633E0,8.121271E0,1.2626776E1,1.8579636E0,3.7388897E0,2.497591E0,2.6805735E0,6.223854E0,2.3069413E0,6.3411946E0,1.4591826E1,1.4981806E-1,2.8577366E0,1.822731E0,7.074463E0,4.6444505E-2,1.8392944E0,2.9873815E0,1.1518192E0,7.593285E-1,8.652256E0,1.6632671E0,3.2702794E0,1.0705833E0,7.1536045E0,1.1196455E1,3.3226314E0,0E0,0E0,0E0,0E0,0E0,0E0,0E0,0E0,0E0,0E0,0E0,0E0,0E0,0E0,0E0,0E0,0E0,0E0,0E0,0E0,0E0,0E0,0E0,0E0,0E0,0E0,0E0,0E0,0E0,0E0,0E0,0E0],"parents":[2147483647,0,0,1,1,2,2,3,3,4,4,5,5,6,6,7,7,8,8,9,9,10,10,11,11,12,12,13,13,14,14,15,15,16,16,17,17,18,18,19,19,20,20,21,21,22,22,23,23,24,24,25,25,26,26,27,27,28,28,29,29,30,30],"right_children":[2,4,6,8,10,12,14,16,18,20,22,24,26,28,30,32,34,36,38,40,42,44,46,48,50,52,54,56,58,60,62,-1,-1,-1,-1,-1,-1,-1,-1,-1,-1,-1,-1,-1,-1,-1,-1,-1,-1,-1,-1,-1,-1,-1,-1,-1,-1,-1,-1,-1,-1,-1,-1],"split_conditions":[1.9518869E0,2E0,1E0,1.3375335E0,1.1888185E0,2.677915E0,2E0,2E0,2E0,2E0,6.007096E-1,-7.254716E-1,2E0,-5.713649E-1,3.23688E0,1E0,9.8621994E-1,1E0,1.375676E0,-2.5190917E-1,5.826487E-1,-5.0118643E-1,1.3075961E0,2E0,4.0641195E-1,-1.0779637E0,3.602813E0,2E0,4.5880884E-1,3E0,3.858851E0,-4.880456E-4,-8.674931E-4,-1.2612423E-3,-3.995926E-3,-9.6647476E-5,-8.8299246E-4,8.3840947E-4,-5.725862E-3,-5.083387E-4,-1.2457517E-3,-3.0423151E-3,-5.621675E-3,-2.2083235E-3,-5.935985E-4,-2.1071394E-3,-4.9262648E-3,-6.385306E-4,1.0486407E-3,2.1474264E-3,4.4661044E-4,-2.1598132E-3,2.4400314E-4,1.6728953E-3,-8.38814E-4,-1.2076151E-3,-2.1973872E-3,1.2285709E-5,-1.2972191E-3,1.3112733E-3,-3.579765E-4,-7.89879E-4,-3.255206E-3],"split_indices":[1,3,3,1,1,1,2,2,2,2,0,0,2,0,1,3,0,3,0,0,0,0,0,2,0,0,1,3,0,3,1,0,0,0,0,0,0,0,0,0,0,0,0,0,0,0,0,0,0,0,0,0,0,0,0,0,0,0,0,0,0,0,0],"split_type":[0,0,0,0,0,0,0,0,0,0,0,0,0,0,0,0,0,0,0,0,0,0,0,0,0,0,0,0,0,0,0,0,0,0,0,0,0,0,0,0,0,0,0,0,0,0,0,0,0,0,0,0,0,0,0,0,0,0,0,0,0,0,0],"sum_hessian":[1.175146E6,3.44447E5,8.30699E5,2.44264E5,1.00183E5,3.07638E5,5.23061E5,7.4299E4,1.69965E5,1.775E4,8.2433E4,1.60717E5,1.46921E5,2.77581E5,2.4548E5,4.3279E4,3.102E4,1.21084E5,4.8881E4,4.399E3,1.3351E4,6.6152E4,1.6281E4,1.8015E4,1.42702E5,1.15516E5,3.1405E4,4.6909E4,2.30672E5,1.99091E5,4.6389E4,2.5862E4,1.7417E4,2.6557E4,4.463E3,7.0343E4,5.0741E4,4.7181E4,1.7E3,1.163E3,3.236E3,9.438E3,3.913E3,1.4743E4,5.1409E4,1.4673E4,1.608E3,1.476E4,3.255E3,1.00034E5,4.2668E4,2.953E3,1.12563E5,2.4856E4,6.549E3,2.9569E4,1.734E4,1.75996E5,5.4676E4,1.43242E5,5.5849E4,4.0059E4,6.33E3],"tree_param":{"num_deleted":"0","num_feature":"4","num_nodes":"63","size_leaf_vector":"1"}},{"base_weights":[-5.964726E-7,5.6835455E-3,-3.335433E-3,-2.4177292E-3,7.852248E-3,-1.7208033E-3,-1.7844176E-2,-6.1872704E-3,-1.09076886E-4,5.806868E-3,1.717135E-2,-1.158715E-2,1.1254115E-3,-1.6330827E-2,-5.8536813E-2,-1.4252366E-2,-5.1694214E-3,-2.166317E-3,6.9317194E-3,-2.3468265E-3,8.043498E-3,2.2922924E-2,3.6246413E-3,-3.196407E-2,-9.392294E-3,-3.41517E-3,6.276294E-3,-2.9454514E-2,-1.369881E-2,-5.575825E-3,-7.865195E-2,-7.5158E-4,-2.437399E-3,-1.5461688E-4,-8.286829E-4,-9.0956845E-4,-1.4593509E-4,-5.2401824E-3,8.5997296E-4,-9.513969E-4,1.0362807E-4,1.2457634E-3,4.0836053E-6,2.4733474E-3,-2.5767963E-3,6.0202455E-4,-3.465749E-3,-1.8347445E-3,-4.1053803E-3,-2.2479482E-3,-8.321213E-4,-3.6600653E-5,-8.3629554E-4,1.0593164E-3,-6.171559E-4,-8.053185E-4,-4.097409E-3,-1.2115833E-3,-2.309133E-3,-3.3513425E-4,-3.872513E-3,-7.488519E-3,-1.1027267E-2],"categories":[],"categories_nodes":[],"categories_segments":[],"categories_sizes":[],"default_left":[0,0,0,0,0,0,0,0,0,0,0,0,0,0,0,0,0,0,0,0,0,0,0,0,0,0,0,0,0,0,0,0,0,0,0,0,0,0,0,0,0,0,0,0,0,0,0,0,0,0,0,0,0,0,0,0,0,0,0,0,0,0,0],"id":16,"left_children":[1,3,5,7,9,11,13,15,17,19,21,23,25,27,29,31,33,35,37,39,41,43,45,47,49,51,53,55,57,59,61,-1,-1,-1,-1,-1,-1,-1,-1,-1,-1,-1,-1,-1,-1,-1,-1,-1,-1,-1,-1,-1,-1,-1,-1,-1,-1,-1,-1,-1,-1,-1,-1],"loss_changes":[2.2275736E1,7.6342125E0,1.7350105E1,7.9852885E-1,6.5333405E0,1.8715399E1,4.566469E0,2.8602803E-1,8.242907E-1,5.125909E0,4.806488E0,6.67321E0,1.2097418E1,2.4696789E0,2.83224E0,2.6607925E-1,3.495497E-1,2.1573114E-1,1.2739825E0,1.4670873E0,7.7915983E0,3.8181973E0,1.6864586E0,1.7950478E0,1.8880463E0,4.147471E0,1.3022282E1,2.944521E0,8.8535595E-1,5.3921677E-2,2.2126389E-1,0E0,0E0,0E0,0E0,0E0,0E0,0E0,0E0,0E0,0E0,0E0,0E0,0E0,0E0,0E0,0E0,0E0,0E0,0E0,0E0,0E0,0E0,0E0,0E0,0E0,0E0,0E0,0E0,0E0,0E0,0E0,0E0],"parents":[2147483647,0,0,1,1,2,2,3,3,4,4,5,5,6,6,7,7,8,8,9,9,10,10,11,11,12,12,13,13,14,14,15,15,16,16,17,17,18,18,19,19,20,20,21,21,22,22,23,23,24,24,25,25,26,26,27,27,28,28,29,29,30,30],"right_children":[2,4,6,8,10,12,14,16,18,20,22,24,26,28,30,32,34,36,38,40,42,44,46,48,50,52,54,56,58,60,62,-1,-1,-1,-1,-1,-1,-1,-1,-1,-1,-1,-1,-1,-1,-1,-1,-1,-1,-1,-1,-1,-1,-1,-1,-1,-1,-1,-1,-1,-1,-1,-1],"split_conditions":[1E0,1.7578746E0,7.942834E-1,1.2993886E0,2E0,-5.0118643E-1,1.6157973E0,-7.0250314E-1,2E0,-4.6799475E-1,3.1105034E0,-1.1840609E0,2E0,1.407015E0,2E0,2E0,2.3646185E-1,-7.37673E-1,-1.2312088E0,-8.475248E-1,3.3582225E-1,1.2544847E0,4.070963E0,2E0,1.3732648E0,2E0,3E0,2E0,1.2544847E0,2.8425848E0,3E0,-7.5158E-4,-2.437399E-3,-1.5461688E-4,-8.286829E-4,-9.0956845E-4,-1.4593509E-4,-5.2401824E-3,8.5997296E-4,-9.513969E-4,1.0362807E-4,1.2457634E-3,4.0836053E-6,2.4733474E-3,-2.5767963E-3,6.0202455E-4,-3.465749E-3,-1.8347445E-3,-4.1053803E-3,-2.2479482E-3,-8.321213E-4,-3.6600653E-5,-8.3629554E-4,1.0593164E-3,-6.171559E-4,-8.053185E-4,-4.097409E-3,-1.2115833E-3,-2.309133E-3,-3.3513425E-4,-3.872513E-3,-7.488519E-3,-1.1027267E-2],"split_indices":[3,1,0,1,2,0,0,0,2,0,1,0,2,1,2,2,0,0,0,0,0,0,1,2,1,3,3,2,0,1,3,0,0,0,0,0,0,0,0,0,0,0,0,0,0,0,0,0,0,0,0,0,0,0,0,0,0,0,0,0,0,0,0],"split_type":[0,0,0,0,0,0,0,0,0,0,0,0,0,0,0,0,0,0,0,0,0,0,0,0,0,0,0,0,0,0,0,0,0,0,0,0,0,0,0,0,0,0,0,0,0,0,0,0,0,0,0,0,0,0,0,0,0,0,0,0,0,0,0],"sum_hessian":[1.175146E6,4.34519E5,7.40627E5,9.1757E4,3.42762E5,6.6646E5,7.4167E4,3.4851E4,5.6906E4,2.81073E5,6.1689E4,1.49213E5,5.17247E5,7.1509E4,2.658E3,3.904E3,3.0947E4,4.4039E4,1.2867E4,6.0504E4,2.20569E5,4.3303E4,1.8386E4,1.4508E4,1.34705E5,2.7491E5,2.42337E5,1.1944E4,5.9565E4,7.32E2,1.926E3,2.345E3,1.559E3,1.4313E4,1.6634E4,4.076E3,3.9963E4,3.51E2,1.2516E4,1.9401E4,4.1103E4,1.42157E5,7.8412E4,4.1751E4,1.552E3,1.7304E4,1.082E3,5.809E3,8.699E3,1.0189E4,1.24516E5,1.7009E5,1.0482E5,1.79936E5,6.2401E4,4.18E3,7.764E3,5.0976E4,8.589E3,6.87E2,4.5E1,1.724E3,2.02E2],"tree_param":{"num_deleted":"0","num_feature":"4","num_nodes":"63","size_leaf_vector":"1"}},{"base_weights":[-5.81502E-7,-6.472188E-3,2.6828565E-3,-5.054125E-3,-2.1576261E-2,6.503168E-3,-2.589703E-3,-1.4197643E-2,-3.2496494E-3,-4.138924E-2,-1.6615609E-2,-6.7347316E-3,8.363295E-3,2.4934197E-3,-5.665574E-3,-6.0949572E-3,-2.1944024E-2,-2.4660973E-2,-2.6094427E-3,-1.7557498E-2,-4.594199E-2,-5.6607336E-2,-1.5391289E-2,-2.2575706E-2,-3.6913268E-3,1.2529954E-2,-1.0661237E-3,7.186398E-4,8.747995E-3,-3.9336425E-3,-1.4138384E-2,-3.734694E-4,-7.5530243E-4,-3.9962786E-3,-1.775921E-3,-8.63478E-4,-4.1028573E-3,5.052317E-5,-8.371551E-4,-7.9525367E-4,-5.573456E-3,-9.277353E-3,-4.3252427E-3,-9.372947E-3,-4.735808E-3,-9.526157E-4,-2.6038622E-3,-6.446004E-4,-2.695086E-3,9.073552E-8,-1.1706768E-3,3.6054515E-4,1.5558817E-3,2.7936886E-4,-8.4264076E-4,1.6893358E-4,-1.182679E-3,1.1955432E-3,-1.5524349E-3,-8.9568546E-4,1.4331892E-4,-1.1958948E-3,-2.7832573E-3],"categories":[],"categories_nodes":[],"categories_segments":[],"categories_sizes":[],"default_left":[0,0,0,0,0,0,0,0,0,0,0,0,0,0,0,0,0,0,0,0,0,0,0,0,0,0,0,0,0,0,0,0,0,0,0,0,0,0,0,0,0,0,0,0,0,0,0,0,0,0,0,0,0,0,0,0,0,0,0,0,0,0,0],"id":17,"left_children":[1,3,5,7,9,11,13,15,17,19,21,23,25,27,29,31,33,35,37,39,41,43,45,47,49,51,53,55,57,59,61,-1,-1,-1,-1,-1,-1,-1,-1,-1,-1,-1,-1,-1,-1,-1,-1,-1,-1,-1,-1,-1,-1,-1,-1,-1,-1,-1,-1,-1,-1,-1,-1],"loss_changes":[2.04078E1,7.3774614E0,1.6732658E1,5.1953382E0,2.9049206E0,1.1861204E1,5.4568586E0,3.2574463E0,3.6048756E0,6.414032E-1,1.1568513E0,2.8610165E0,1.6593475E1,1.4605521E0,3.1907148E0,8.7273836E-2,2.0000162E0,2.0023851E0,4.5828466E0,3.4827822E-1,6.218653E-1,2.3659468E-1,1.432559E0,6.74757E-1,1.4733219E0,7.917652E0,3.6770976E0,1.2481712E0,2.2643561E0,4.8670616E0,1.1010599E0,0E0,0E0,0E0,0E0,0E0,0E0,0E0,0E0,0E0,0E0,0E0,0E0,0E0,0E0,0E0,0E0,0E0,0E0,0E0,0E0,0E0,0E0,0E0,0E0,0E0,0E0,0E0,0E0,0E0,0E0,0E0,0E0],"parents":[2147483647,0,0,1,1,2,2,3,3,4,4,5,5,6,6,7,7,8,8,9,9,10,10,11,11,12,12,13,13,14,14,15,15,16,16,17,17,18,18,19,19,20,20,21,21,22,22,23,23,24,24,25,25,26,26,27,27,28,28,29,29,30,30],"right_children":[2,4,6,8,10,12,14,16,18,20,22,24,26,28,30,32,34,36,38,40,42,44,46,48,50,52,54,56,58,60,62,-1,-1,-1,-1,-1,-1,-1,-1,-1,-1,-1,-1,-1,-1,-1,-1,-1,-1,-1,-1,-1,-1,-1,-1,-1,-1,-1,-1,-1,-1,-1,-1],"split_conditions":[1.9518869E0,3E0,2.7502751E0,1.1086779E0,1.2993886E0,-7.0250314E-1,1E0,2E0,-1.108955E0,2E0,-1.0236276E0,-1.1840609E0,3.9204392E-1,2E0,3.4984426E0,1E0,5.4157734E-1,2E0,3.5656267E-1,1.2361321E0,-8.797117E-1,-1.3688526E0,3.0884087E-1,1E0,2E0,-3.627298E-1,8.072518E-1,7.33729E-1,3.7981584E0,2E0,3E0,-3.734694E-4,-7.5530243E-4,-3.9962786E-3,-1.775921E-3,-8.63478E-4,-4.1028573E-3,5.052317E-5,-8.371551E-4,-7.9525367E-4,-5.573456E-3,-9.277353E-3,-4.3252427E-3,-9.372947E-3,-4.735808E-3,-9.526157E-4,-2.6038622E-3,-6.446004E-4,-2.695086E-3,9.073552E-8,-1.1706768E-3,3.6054515E-4,1.5558817E-3,2.7936886E-4,-8.4264076E-4,1.6893358E-4,-1.182679E-3,1.1955432E-3,-1.5524349E-3,-8.9568546E-4,1.4331892E-4,-1.1958948E-3,-2.7832573E-3],"split_indices":[1,3,1,1,1,0,3,2,0,2,0,0,0,2,1,2,1,2,0,1,0,0,0,2,3,0,0,0,1,2,3,0,0,0,0,0,0,0,0,0,0,0,0,0,0,0,0,0,0,0,0,0,0,0,0,0,0,0,0,0,0,0,0],"split_type":[0,0,0,0,0,0,0,0,0,0,0,0,0,0,0,0,0,0,0,0,0,0,0,0,0,0,0,0,0,0,0,0,0,0,0,0,0,0,0,0,0,0,0,0,0,0,0,0,0,0,0,0,0,0,0,0,0,0,0,0,0,0,0],"sum_hessian":[1.175146E6,3.44447E5,8.30699E5,3.14885E5,2.9562E4,4.81686E5,3.49013E5,5.1899E4,2.62986E5,5.918E3,2.3644E4,5.9345E4,4.22341E5,1.31575E5,2.17438E5,2.5367E4,2.6532E4,7.634E3,2.55352E5,9.5E2,4.968E3,7.01E2,2.2943E4,9.563E3,4.9782E4,2.9291E5,1.29431E5,1.02493E5,2.9082E4,1.80536E5,3.6902E4,9.688E3,1.5679E4,4.999E3,2.1533E4,3.858E3,3.776E3,1.65755E5,8.9597E4,7.6E2,1.9E2,2.68E2,4.7E3,1.38E2,5.63E2,1.4795E4,8.148E3,2.041E3,7.522E3,3.4083E4,1.5699E4,7.4221E4,2.18689E5,8.4906E4,4.4525E4,9.5133E4,7.36E3,2.5688E4,3.394E3,9.3253E4,8.7283E4,3.1837E4,5.065E3],"tree_param":{"num_deleted":"0","num_feature":"4","num_nodes":"63","size_leaf_vector":"1"}},{"base_weights":[-5.742783E-7,2.5948514E-3,-5.809902E-3,-2.9043301E-3,5.136019E-3,-2.1686526E-2,-4.410699E-3,-1.8290527E-2,-2.1503647E-3,9.45724E-3,4.4546317E-4,-1.72648E-2,-3.4905538E-2,-9.440569E-3,-1.039326E-3,-6.3447487E-3,-3.3797305E-2,1.1723185E-3,-7.0595588E-3,6.3101454E-3,2.0591471E-2,2.7099014E-3,-4.4321157E-3,-4.0585574E-2,-1.5337174E-2,-3.230838E-2,-7.4938595E-2,-1.5877202E-2,-7.1972352E-3,6.093276E-4,-2.2381822E-2,-2.865838E-4,-1.2068007E-3,-5.150755E-3,-2.3334618E-3,-1.8769519E-4,8.365411E-4,-5.930009E-4,-2.2873213E-3,9.180877E-4,-1.7393839E-4,2.2725626E-3,-1.0374611E-3,-1.8641133E-5,1.1522935E-3,-9.781583E-4,-1.1052034E-4,-4.5782744E-4,-4.9410644E-3,-4.048049E-3,-1.3642827E-3,-5.8132946E-3,-2.8946418E-3,-1.111171E-4,-8.2976455E-3,-1.1884401E-3,-2.1179083E-3,-2.5794024E-4,-1.2889734E-3,-1.8337894E-3,2.5093212E-4,-2.0130088E-3,-8.368074E-3],"categories":[],"categories_nodes":[],"categories_segments":[],"categories_sizes":[],"default_left":[0,0,0,0,0,0,0,0,0,0,0,0,0,0,0,0,0,0,0,0,0,0,0,0,0,0,0,0,0,0,0,0,0,0,0,0,0,0,0,0,0,0,0,0,0,0,0,0,0,0,0,0,0,0,0,0,0,0,0,0,0,0,0],"id":18,"left_children":[1,3,5,7,9,11,13,15,17,19,21,23,25,27,29,31,33,35,37,39,41,43,45,47,49,51,53,55,57,59,61,-1,-1,-1,-1,-1,-1,-1,-1,-1,-1,-1,-1,-1,-1,-1,-1,-1,-1,-1,-1,-1,-1,-1,-1,-1,-1,-1,-1,-1,-1,-1,-1],"loss_changes":[1.7718504E1,1.1350771E1,8.061392E0,2.978036E0,1.1260237E1,1.7173262E0,5.655356E0,2.22119E0,3.991888E0,1.0132002E1,2.942261E0,9.8952866E-1,7.634373E-1,1.9323549E0,7.0256786E0,1.3486043E-1,9.656763E-1,3.2011495E0,1.7643032E0,5.209422E0,4.211195E0,4.6437697E0,1.5031595E0,5.3393984E-1,8.662181E-1,5.990329E-1,2.6575732E-1,7.319536E-1,2.6088204E0,6.6726794E0,1.9746122E0,0E0,0E0,0E0,0E0,0E0,0E0,0E0,0E0,0E0,0E0,0E0,0E0,0E0,0E0,0E0,0E0,0E0,0E0,0E0,0E0,0E0,0E0,0E0,0E0,0E0,0E0,0E0,0E0,0E0,0E0,0E0,0E0],"parents":[2147483647,0,0,1,1,2,2,3,3,4,4,5,5,6,6,7,7,8,8,9,9,10,10,11,11,12,12,13,13,14,14,15,15,16,16,17,17,18,18,19,19,20,20,21,21,22,22,23,23,24,24,25,25,26,26,27,27,28,28,29,29,30,30],"right_children":[2,4,6,8,10,12,14,16,18,20,22,24,26,28,30,32,34,36,38,40,42,44,46,48,50,52,54,56,58,60,62,-1,-1,-1,-1,-1,-1,-1,-1,-1,-1,-1,-1,-1,-1,-1,-1,-1,-1,-1,-1,-1,-1,-1,-1,-1,-1,-1,-1,-1,-1,-1,-1],"split_conditions":[2E0,1.9853493E0,1.3732648E0,-9.986527E-1,2.6857927E0,3E0,2E0,2E0,3.0213097E-1,2E0,3.2649965E0,5.4157734E-1,1.1383994E0,-3.7727702E-1,8.950455E-1,1.7265817E0,-1.2903198E0,2E0,1.375676E0,3.8495976E-1,1.0793039E0,2E0,-1.9332932E-1,2E0,-8.797117E-1,7.5151503E-1,2E0,2.5781512E0,2.3010556E-1,-8.322343E-1,1.6157973E0,-2.865838E-4,-1.2068007E-3,-5.150755E-3,-2.3334618E-3,-1.8769519E-4,8.365411E-4,-5.930009E-4,-2.2873213E-3,9.180877E-4,-1.7393839E-4,2.2725626E-3,-1.0374611E-3,-1.8641133E-5,1.1522935E-3,-9.781583E-4,-1.1052034E-4,-4.5782744E-4,-4.9410644E-3,-4.048049E-3,-1.3642827E-3,-5.8132946E-3,-2.8946418E-3,-1.111171E-4,-8.2976455E-3,-1.1884401E-3,-2.1179083E-3,-2.5794024E-4,-1.2889734E-3,-1.8337894E-3,2.5093212E-4,-2.0130088E-3,-8.368074E-3],"split_indices":[3,1,1,0,1,3,2,2,0,2,1,1,0,0,0,1,0,2,0,0,0,2,0,2,0,1,2,1,0,0,0,0,0,0,0,0,0,0,0,0,0,0,0,0,0,0,0,0,0,0,0,0,0,0,0,0,0,0,0,0,0,0,0],"split_type":[0,0,0,0,0,0,0,0,0,0,0,0,0,0,0,0,0,0,0,0,0,0,0,0,0,0,0,0,0,0,0,0,0,0,0,0,0,0,0,0,0,0,0,0,0,0,0,0,0,0,0,0,0,0,0,0,0,0,0,0,0,0,0],"sum_hessian":[1.175146E6,8.12256E5,3.6289E5,2.56715E5,5.55541E5,2.939E4,3.335E5,1.1991E4,2.44724E5,2.89154E5,2.66387E5,2.2025E4,7.365E3,1.33831E5,1.99669E5,6.774E3,5.217E3,1.45945E5,9.8779E4,2.25436E5,6.3718E4,1.81927E5,8.446E4,1.68E3,2.0345E4,6.918E3,4.47E2,3.4587E4,9.9244E4,1.85352E5,1.4317E4,4.214E3,2.56E3,1.936E3,3.281E3,1.02496E5,4.3449E4,9.2195E4,6.584E3,1.66173E5,5.9263E4,5.961E4,4.108E3,1.36928E5,4.4999E4,3.2385E4,5.2075E4,3.31E2,1.349E3,1.283E3,1.9062E4,7.95E2,6.123E3,4.4E1,4.03E2,1.9731E4,1.4856E4,5.4795E4,4.4449E4,1.6892E4,1.6846E5,1.3811E4,5.06E2],"tree_param":{"num_deleted":"0","num_feature":"4","num_nodes":"63","size_leaf_vector":"1"}},{"base_weights":[-5.6298387E-7,4.697902E-3,-2.7571116E-3,-5.428075E-3,5.911814E-3,-8.481683E-4,-1.0919016E-2,-1.2856789E-2,-2.906331E-3,8.220809E-3,5.7200645E-4,-8.3033675E-3,2.6730236E-3,-9.535148E-3,-3.2839786E-2,-1.7665405E-2,-9.198684E-3,-4.678317E-3,3.6528322E-3,6.551338E-3,1.5945628E-2,2.0728582E-3,-7.884567E-3,-2.5458891E-2,-6.9053294E-3,-1.7330042E-3,7.788514E-3,-2.5498772E-2,-8.393359E-3,-8.7460404E-4,-4.6760757E-2,-1.4668903E-3,-2.4208028E-3,-7.4019114E-4,-2.6104224E-3,-3.378032E-4,-1.5335317E-3,-1.4778677E-3,5.972365E-4,-1.4249716E-4,8.2039647E-4,1.8531241E-3,-1.0411366E-3,-1.26565865E-5,1.016954E-3,-6.3512014E-4,-2.0403755E-3,-1.4553246E-3,-3.2738931E-3,-5.776239E-4,-1.5493769E-3,-9.2400826E-4,2.4670602E-5,1.180068E-3,-3.5217282E-4,-6.5657165E-4,-3.57183E-3,-6.945978E-4,-1.6540241E-3,7.044548E-4,-9.546924E-4,-3.7369728E-3,-6.565013E-3],"categories":[],"categories_nodes":[],"categories_segments":[],"categories_sizes":[],"default_left":[0,0,0,0,0,0,0,0,0,0,0,0,0,0,0,0,0,0,0,0,0,0,0,0,0,0,0,0,0,0,0,0,0,0,0,0,0,0,0,0,0,0,0,0,0,0,0,0,0,0,0,0,0,0,0,0,0,0,0,0,0,0,0],"id":19,"left_children":[1,3,5,7,9,11,13,15,17,19,21,23,25,27,29,31,33,35,37,39,41,43,45,47,49,51,53,55,57,59,61,-1,-1,-1,-1,-1,-1,-1,-1,-1,-1,-1,-1,-1,-1,-1,-1,-1,-1,-1,-1,-1,-1,-1,-1,-1,-1,-1,-1,-1,-1,-1,-1],"loss_changes":[1.5219986E1,5.3411703E0,1.1539429E1,8.7134266E-1,4.783951E0,1.5757085E1,4.2583904E0,2.0719337E-1,4.0365168E-1,3.493208E0,1.4866505E0,4.6181E0,9.188868E0,2.4067087E0,3.709365E0,9.947336E-2,2.0323098E-1,3.7882996E-1,3.159009E-1,2.936139E0,3.2806787E0,1.7714912E0,3.3878446E-1,1.1514444E0,1.7264633E0,3.2552357E0,8.560934E0,1.7051592E0,1.4530764E0,1.7382112E-1,1.0276546E0,0E0,0E0,0E0,0E0,0E0,0E0,0E0,0E0,0E0,0E0,0E0,0E0,0E0,0E0,0E0,0E0,0E0,0E0,0E0,0E0,0E0,0E0,0E0,0E0,0E0,0E0,0E0,0E0,0E0,0E0,0E0,0E0],"parents":[2147483647,0,0,1,1,2,2,3,3,4,4,5,5,6,6,7,7,8,8,9,9,10,10,11,11,12,12,13,13,14,14,15,15,16,16,17,17,18,18,19,19,20,20,21,21,22,22,23,23,24,24,25,25,26,26,27,27,28,28,29,29,30,30],"right_children":[2,4,6,8,10,12,14,16,18,20,22,24,26,28,30,32,34,36,38,40,42,44,46,48,50,52,54,56,58,60,62,-1,-1,-1,-1,-1,-1,-1,-1,-1,-1,-1,-1,-1,-1,-1,-1,-1,-1,-1,-1,-1,-1,-1,-1,-1,-1,-1,-1,-1,-1,-1,-1],"split_conditions":[1E0,-7.254716E-1,5.563155E-1,-1.108955E0,4.0641195E-1,-3.8454112E-1,1.375676E0,-1.2903198E0,2E0,2E0,1.0793039E0,-1.1840609E0,2E0,1.1086779E0,2E0,2E0,3.2231543E0,3.1583452E0,1.2361321E0,1.7578746E0,3.633769E0,2E0,1.6157973E0,2E0,3.2231543E0,1.8356647E0,3E0,2E0,3E0,1.8632956E0,1.6157973E0,-1.4668903E-3,-2.4208028E-3,-7.4019114E-4,-2.6104224E-3,-3.378032E-4,-1.5335317E-3,-1.4778677E-3,5.972365E-4,-1.4249716E-4,8.2039647E-4,1.8531241E-3,-1.0411366E-3,-1.26565865E-5,1.016954E-3,-6.3512014E-4,-2.0403755E-3,-1.4553246E-3,-3.2738931E-3,-5.776239E-4,-1.5493769E-3,-9.2400826E-4,2.4670602E-5,1.180068E-3,-3.5217282E-4,-6.5657165E-4,-3.57183E-3,-6.945978E-4,-1.6540241E-3,7.044548E-4,-9.546924E-4,-3.7369728E-3,-6.565013E-3],"split_indices":[3,0,0,0,0,0,0,0,2,2,0,0,2,1,2,2,1,1,1,1,1,2,0,2,1,1,3,2,3,1,0,0,0,0,0,0,0,0,0,0,0,0,0,0,0,0,0,0,0,0,0,0,0,0,0,0,0,0,0,0,0,0,0],"split_type":[0,0,0,0,0,0,0,0,0,0,0,0,0,0,0,0,0,0,0,0,0,0,0,0,0,0,0,0,0,0,0,0,0,0,0,0,0,0,0,0,0,0,0,0,0,0,0,0,0,0,0,0,0,0,0,0,0,0,0,0,0,0,0],"sum_hessian":[1.175146E6,4.34519E5,7.40627E5,4.6514E4,3.88005E5,6.00241E5,1.40386E5,1.1787E4,3.4727E4,2.70875E5,1.1713E5,1.92555E5,4.07686E5,1.32051E5,8.335E3,5.091E3,6.696E3,2.7341E4,7.386E3,2.22739E5,4.8136E4,9.9476E4,1.7654E4,1.4508E4,1.78047E5,2.19032E5,1.88654E5,8.813E3,1.23238E5,2.529E3,5.806E3,3.494E3,1.597E3,6.054E3,6.42E2,2.4369E4,2.972E3,8.25E2,6.561E3,3.8229E4,1.8451E5,4.3836E4,4.3E3,7.8227E4,2.1249E4,1.5729E4,1.925E3,5.809E3,8.699E3,1.57361E5,2.0686E4,4.5707E4,1.73325E5,1.39255E5,4.9399E4,3.09E3,5.723E3,1.04648E5,1.859E4,1.322E3,1.207E3,3.88E3,1.926E3],"tree_param":{"num_deleted":"0","num_feature":"4","num_nodes":"63","size_leaf_vector":"1"}},{"base_weights":[-5.3564577E-7,1.132005E-3,-9.945559E-3,-4.0325904E-3,3.288602E-3,-2.9121788E-2,-8.489939E-3,-1.3716349E-2,-2.8146207E-3,6.619417E-3,-1.3103771E-3,-9.186601E-3,-3.329296E-2,-1.4778952E-2,-6.1116535E-3,-4.6275705E-3,-2.1785842E-2,-7.205097E-4,-6.8127327E-3,3.6643564E-3,1.3978519E-2,1.1765767E-3,-4.848038E-3,-1.617593E-2,8.586744E-3,-7.491469E-2,-3.0935545E-2,7.0592198E-3,-1.6776867E-2,-5.019128E-3,-3.348255E-2,-2.0363939E-4,-6.209986E-4,-1.0138846E-3,-2.6641644E-3,-8.1864896E-4,2.9215572E-4,-2.1228271E-4,-1.0069441E-3,-6.679068E-4,5.377644E-4,1.5519216E-3,-1.1728414E-3,-1.8228349E-4,7.836057E-4,-9.385789E-4,-2.194683E-4,-2.497486E-4,-2.979783E-3,-8.893747E-4,3.5126235E-3,-1.0433329E-2,-6.6837296E-3,-2.80793E-3,-7.1282717E-3,-3.153607E-3,1.7833187E-3,-1.7298745E-3,1.4588152E-3,-3.7785384E-4,-2.7331894E-3,3.691934E-4,-3.6272237E-3],"categories":[],"categories_nodes":[],"categories_segments":[],"categories_sizes":[],"default_left":[0,0,0,0,0,0,0,0,0,0,0,0,0,0,0,0,0,0,0,0,0,0,0,0,0,0,0,0,0,0,0,0,0,0,0,0,0,0,0,0,0,0,0,0,0,0,0,0,0,0,0,0,0,0,0,0,0,0,0,0,0,0,0],"id":20,"left_children":[1,3,5,7,9,11,13,15,17,19,21,23,25,27,29,31,33,35,37,39,41,43,45,47,49,51,53,55,57,59,61,-1,-1,-1,-1,-1,-1,-1,-1,-1,-1,-1,-1,-1,-1,-1,-1,-1,-1,-1,-1,-1,-1,-1,-1,-1,-1,-1,-1,-1,-1,-1,-1],"loss_changes":[1.3235862E1,1.1750595E1,3.3533697E0,3.6653686E0,1.1400429E1,7.044997E-1,1.6701508E0,2.5463276E0,2.311246E0,9.386366E0,2.7503219E0,1.8249935E-1,6.8540287E-1,1.3370104E0,2.4228754E0,6.694552E-2,1.0398417E0,4.9261894E0,1.4492807E0,5.4575624E0,4.8980503E0,3.6666174E0,1.5537033E0,1.9631359E-1,1.9284059E-1,8.2136154E-2,7.6262426E-1,1.068815E0,4.5977116E-1,2.1567988E0,3.226564E-1,0E0,0E0,0E0,0E0,0E0,0E0,0E0,0E0,0E0,0E0,0E0,0E0,0E0,0E0,0E0,0E0,0E0,0E0,0E0,0E0,0E0,0E0,0E0,0E0,0E0,0E0,0E0,0E0,0E0,0E0,0E0,0E0],"parents":[2147483647,0,0,1,1,2,2,3,3,4,4,5,5,6,6,7,7,8,8,9,9,10,10,11,11,12,12,13,13,14,14,15,15,16,16,17,17,18,18,19,19,20,20,21,21,22,22,23,23,24,24,25,25,26,26,27,27,28,28,29,29,30,30],"right_children":[2,4,6,8,10,12,14,16,18,20,22,24,26,28,30,32,34,36,38,40,42,44,46,48,50,52,54,56,58,60,62,-1,-1,-1,-1,-1,-1,-1,-1,-1,-1,-1,-1,-1,-1,-1,-1,-1,-1,-1,-1,-1,-1,-1,-1,-1,-1,-1,-1,-1,-1,-1,-1],"split_conditions":[3E0,1.9431908E0,1.4234353E0,9.7100013E-1,2.7502751E0,2E0,2E0,2E0,3.5656267E-1,2E0,3.1964667E0,4.2095459E-1,-8.797117E-1,1E0,3.574029E0,1E0,1E0,-4.3674082E-1,1E0,-6.385287E-1,1.0793039E0,2E0,-2.1938905E-1,1.2361321E0,1.2582915E0,-1.2903198E0,1.1383994E0,-4.5226887E-1,1.0793039E0,9.289747E-1,-8.475248E-1,-2.0363939E-4,-6.209986E-4,-1.0138846E-3,-2.6641644E-3,-8.1864896E-4,2.9215572E-4,-2.1228271E-4,-1.0069441E-3,-6.679068E-4,5.377644E-4,1.5519216E-3,-1.1728414E-3,-1.8228349E-4,7.836057E-4,-9.385789E-4,-2.194683E-4,-2.497486E-4,-2.979783E-3,-8.893747E-4,3.5126235E-3,-1.0433329E-2,-6.6837296E-3,-2.80793E-3,-7.1282717E-3,-3.153607E-3,1.7833187E-3,-1.7298745E-3,1.4588152E-3,-3.7785384E-4,-2.7331894E-3,3.691934E-4,-3.6272237E-3],"split_indices":[3,1,1,1,1,2,2,2,0,2,1,0,0,2,1,2,3,0,3,0,0,2,0,1,1,0,0,0,0,0,0,0,0,0,0,0,0,0,0,0,0,0,0,0,0,0,0,0,0,0,0,0,0,0,0,0,0,0,0,0,0,0,0],"split_type":[0,0,0,0,0,0,0,0,0,0,0,0,0,0,0,0,0,0,0,0,0,0,0,0,0,0,0,0,0,0,0,0,0,0,0,0,0,0,0,0,0,0,0,0,0,0,0,0,0,0,0,0,0,0,0,0,0,0,0,0,0,0,0],"sum_hessian":[1.175146E6,1.055003E6,1.20143E5,3.10771E5,7.44232E5,8.475E3,1.11668E5,3.4719E4,2.76052E5,4.31626E5,3.12606E5,1.467E3,7.008E3,3.064E4,8.1028E4,1.6329E4,1.839E4,1.81164E5,9.4888E4,3.07964E5,1.23662E5,1.83563E5,1.29043E5,1.053E3,4.14E2,3.74E2,6.634E3,2.568E3,2.8072E4,7.7919E4,3.109E3,6.192E3,1.0137E4,5.412E3,1.2978E4,5.9399E4,1.21765E5,3.8888E4,5.6E4,4.3762E4,2.64202E5,1.1667E5,6.992E3,1.26561E5,5.7002E4,4.7613E4,8.143E4,5.26E2,5.27E2,2.5E2,1.64E2,7.8E1,2.96E2,6.197E3,4.37E2,5.6E2,2.008E3,2.7613E4,4.59E2,7.3816E4,4.103E3,2.17E2,2.892E3],"tree_param":{"num_deleted":"0","num_feature":"4","num_nodes":"63","size_leaf_vector":"1"}},{"base_weights":[-5.179408E-7,2.118303E-3,-4.7430634E-3,-1.1025E-2,2.8329166E-3,-1.7400404E-2,-3.6275748E-3,-1.9833775E-2,-8.331775E-3,4.029678E-3,-6.784796E-3,-6.924502E-3,-2.132536E-2,-7.803454E-3,-8.286067E-4,-1.3691644E-2,-2.8365668E-2,-6.5182378E-3,-1.1776939E-2,2.0192887E-3,9.7225895E-3,-5.901955E-3,-2.7095437E-2,-9.721587E-3,8.638549E-4,-5.198821E-2,-1.926919E-2,-1.216615E-2,-5.6793103E-3,4.3624433E-4,-1.8216137E-2,-3.859543E-4,-1.9202484E-3,-4.4279476E-3,-8.311096E-4,-8.217217E-4,3.3460857E-4,-2.1140284E-3,-7.319785E-4,-3.0388785E-4,3.8212186E-4,-6.140906E-4,1.216776E-3,-2.8745004E-4,-9.31145E-4,1.3494815E-4,-4.8531634E-3,-2.4077731E-4,-1.5771855E-3,-4.4064122E-4,8.5782766E-4,-7.7666054E-3,-4.545449E-3,-4.6333475E-3,-1.6962715E-3,-7.826802E-4,-1.6402405E-3,-5.9027658E-5,-1.0895414E-3,-8.674182E-4,3.2128283E-4,-1.5134087E-3,-4.9132314E-3],"categories":[],"categories_nodes":[],"categories_segments":[],"categories_sizes":[],"default_left":[0,0,0,0,0,0,0,0,0,0,0,0,0,0,0,0,0,0,0,0,0,0,0,0,0,0,0,0,0,0,0,0,0,0,0,0,0,0,0,0,0,0,0,0,0,0,0,0,0,0,0,0,0,0,0,0,0,0,0,0,0,0,0],"id":21,"left_children":[1,3,5,7,9,11,13,15,17,19,21,23,25,27,29,31,33,35,37,39,41,43,45,47,49,51,53,55,57,59,61,-1,-1,-1,-1,-1,-1,-1,-1,-1,-1,-1,-1,-1,-1,-1,-1,-1,-1,-1,-1,-1,-1,-1,-1,-1,-1,-1,-1,-1,-1,-1,-1],"loss_changes":[1.18085985E1,7.6290607E0,5.123639E0,9.9353933E-1,8.867091E0,1.2083349E0,3.898005E0,5.1353765E-1,2.0035696E-1,7.8411684E0,1.5284996E0,1.7454737E-1,1.3469658E0,1.2401505E0,4.3912773E0,3.0898643E-1,1.309401E0,3.522907E-1,4.615053E-1,4.614855E0,6.9355755E0,8.433087E-1,2.1652908E0,2.608189E-1,8.6149454E-2,2.2178745E-1,1.2500477E0,8.0545235E-1,2.3893025E0,4.708372E0,1.2894182E0,0E0,0E0,0E0,0E0,0E0,0E0,0E0,0E0,0E0,0E0,0E0,0E0,0E0,0E0,0E0,0E0,0E0,0E0,0E0,0E0,0E0,0E0,0E0,0E0,0E0,0E0,0E0,0E0,0E0,0E0,0E0,0E0],"parents":[2147483647,0,0,1,1,2,2,3,3,4,4,5,5,6,6,7,7,8,8,9,9,10,10,11,11,12,12,13,13,14,14,15,15,16,16,17,17,18,18,19,19,20,20,21,21,22,22,23,23,24,24,25,25,26,26,27,27,28,28,29,29,30,30],"right_children":[2,4,6,8,10,12,14,16,18,20,22,24,26,28,30,32,34,36,38,40,42,44,46,48,50,52,54,56,58,60,62,-1,-1,-1,-1,-1,-1,-1,-1,-1,-1,-1,-1,-1,-1,-1,-1,-1,-1,-1,-1,-1,-1,-1,-1,-1,-1,-1,-1,-1,-1,-1,-1],"split_conditions":[2E0,-9.5493764E-1,1.3732648E0,-1.2903198E0,7.942834E-1,2E0,2E0,2E0,2.6082933E0,2E0,1.6157973E0,5.059843E-1,-8.966844E-1,-2.6534614E-1,9.1218567E-1,2.05001E0,2.1581097E0,2.4300468E0,1E0,1.9431908E0,1.3732648E0,1E0,2E0,-1.3634142E-1,1.1888185E0,-1.3688526E0,5.4157734E-1,2.4665527E0,2.3010556E-1,-4.8442754E-1,1.4670937E0,-3.859543E-4,-1.9202484E-3,-4.4279476E-3,-8.311096E-4,-8.217217E-4,3.3460857E-4,-2.1140284E-3,-7.319785E-4,-3.0388785E-4,3.8212186E-4,-6.140906E-4,1.216776E-3,-2.8745004E-4,-9.31145E-4,1.3494815E-4,-4.8531634E-3,-2.4077731E-4,-1.5771855E-3,-4.4064122E-4,8.5782766E-4,-7.7666054E-3,-4.545449E-3,-4.6333475E-3,-1.6962715E-3,-7.826802E-4,-1.6402405E-3,-5.9027658E-5,-1.0895414E-3,-8.674182E-4,3.2128283E-4,-1.5134087E-3,-4.9132314E-3],"split_indices":[3,0,1,0,0,2,2,2,1,2,0,0,0,0,0,1,1,1,2,1,1,3,2,0,1,0,1,1,0,0,0,0,0,0,0,0,0,0,0,0,0,0,0,0,0,0,0,0,0,0,0,0,0,0,0,0,0,0,0,0,0,0,0],"split_type":[0,0,0,0,0,0,0,0,0,0,0,0,0,0,0,0,0,0,0,0,0,0,0,0,0,0,0,0,0,0,0,0,0,0,0,0,0,0,0,0,0,0,0,0,0,0,0,0,0,0,0,0,0,0,0,0,0,0,0,0,0,0,0],"sum_hessian":[1.175146E6,8.12256E5,3.6289E5,4.1885E4,7.70371E5,2.939E4,3.335E5,9.806E3,3.2079E4,6.8512E5,8.5251E4,8.011E3,2.1379E4,1.33831E5,1.99669E5,5.703E3,4.103E3,2.1018E4,1.1061E4,5.0632E5,1.788E5,8.1701E4,3.55E3,5.894E3,2.117E3,1.342E3,2.0037E4,4.3822E4,9.0009E4,1.8613E5,1.3539E4,2.049E3,3.654E3,2.287E3,1.816E3,1.793E4,3.088E3,3.566E3,7.495E3,1.32994E5,3.73326E5,2.3879E4,1.54921E5,4.3276E4,3.8425E4,1.526E3,2.024E3,2.669E3,3.225E3,1.258E3,8.59E2,2.7E2,1.072E3,1.572E3,1.8465E4,2.1649E4,2.2173E4,4.556E4,4.4449E4,4.3476E4,1.42654E5,1.2313E4,1.226E3],"tree_param":{"num_deleted":"0","num_feature":"4","num_nodes":"63","size_leaf_vector":"1"}},{"base_weights":[-5.0606616E-7,3.934092E-3,-2.3089005E-3,-3.3016992E-3,5.019458E-3,-7.4814045E-4,-8.982107E-3,-9.8804785E-3,-1.574055E-3,7.3296097E-3,6.54039E-4,-6.877303E-3,2.1467465E-3,-7.6927254E-3,-2.3898719E-2,-1.8166717E-2,-8.421446E-3,-1.21687626E-4,-7.604374E-3,9.75447E-3,2.8391834E-3,-2.8472315E-3,3.3466665E-3,-2.5637265E-2,-5.991586E-3,-5.789723E-3,4.192757E-3,-1.9812062E-2,-6.8429816E-3,-2.5952777E-3,-3.3775404E-2,-1.0987908E-3,-3.1071133E-3,-2.4261889E-4,-1.0300931E-3,-1.00263176E-4,1.5443084E-3,-8.4935885E-4,2.102333E-4,1.2700369E-4,1.3129147E-3,4.581403E-4,-4.4768443E-4,-1.4719196E-3,-2.4491522E-4,5.379277E-4,-4.589261E-4,-1.1829081E-3,-3.389813E-3,-1.1028217E-3,-4.537146E-4,-1.281234E-3,-3.0610527E-4,6.643771E-4,-5.124101E-4,-4.5965076E-4,-2.8029343E-3,-5.643026E-4,-1.3560285E-3,6.2809384E-4,-1.1311005E-3,-2.7259593E-3,-5.3048334E-3],"categories":[],"categories_nodes":[],"categories_segments":[],"categories_sizes":[],"default_left":[0,0,0,0,0,0,0,0,0,0,0,0,0,0,0,0,0,0,0,0,0,0,0,0,0,0,0,0,0,0,0,0,0,0,0,0,0,0,0,0,0,0,0,0,0,0,0,0,0,0,0,0,0,0,0,0,0,0,0,0,0,0,0],"id":22,"left_children":[1,3,5,7,9,11,13,15,17,19,21,23,25,27,29,31,33,35,37,39,41,43,45,47,49,51,53,55,57,59,61,-1,-1,-1,-1,-1,-1,-1,-1,-1,-1,-1,-1,-1,-1,-1,-1,-1,-1,-1,-1,-1,-1,-1,-1,-1,-1,-1,-1,-1,-1,-1,-1],"loss_changes":[1.0673406E1,3.4125109E0,7.7138376E0,6.441634E-1,3.8104687E0,1.0650249E1,2.6999073E0,1.4236271E-1,3.9315635E-1,2.6904182E0,1.2327459E0,3.19936E0,6.6200857E0,1.3306046E0,2.3499522E0,1.6307259E-1,1.12936616E-1,4.9607712E-1,7.522273E-2,4.5938797E0,1.104383E0,2.6860762E-1,1.1923218E0,9.8981905E-1,1.3469296E0,1.6011715E0,7.40174E0,1.0583792E0,9.7325706E-1,2.7385753E-1,9.5684624E-1,0E0,0E0,0E0,0E0,0E0,0E0,0E0,0E0,0E0,0E0,0E0,0E0,0E0,0E0,0E0,0E0,0E0,0E0,0E0,0E0,0E0,0E0,0E0,0E0,0E0,0E0,0E0,0E0,0E0,0E0,0E0,0E0],"parents":[2147483647,0,0,1,1,2,2,3,3,4,4,5,5,6,6,7,7,8,8,9,9,10,10,11,11,12,12,13,13,14,14,15,15,16,16,17,17,18,18,19,19,20,20,21,21,22,22,23,23,24,24,25,25,26,26,27,27,28,28,29,29,30,30],"right_children":[2,4,6,8,10,12,14,16,18,20,22,24,26,28,30,32,34,36,38,40,42,44,46,48,50,52,54,56,58,60,62,-1,-1,-1,-1,-1,-1,-1,-1,-1,-1,-1,-1,-1,-1,-1,-1,-1,-1,-1,-1,-1,-1,-1,-1,-1,-1,-1,-1,-1,-1,-1,-1],"split_conditions":[1E0,-6.5875185E-1,5.563155E-1,-1.108955E0,3.497087E-1,-3.8454112E-1,1.3075961E0,-1.4956808E0,2.982481E0,2.7179282E0,2.1123202E0,-1.2903198E0,1E0,1.1086779E0,2E0,2E0,1.7776452E0,2.8870776E0,-6.8031126E-1,1.7578746E0,3.4755738E0,3.706418E-1,8.950455E-1,2E0,-8.797117E-1,2.017958E0,3E0,2E0,3E0,1.8632956E0,1.6157973E0,-1.0987908E-3,-3.1071133E-3,-2.4261889E-4,-1.0300931E-3,-1.00263176E-4,1.5443084E-3,-8.4935885E-4,2.102333E-4,1.2700369E-4,1.3129147E-3,4.581403E-4,-4.4768443E-4,-1.4719196E-3,-2.4491522E-4,5.379277E-4,-4.589261E-4,-1.1829081E-3,-3.389813E-3,-1.1028217E-3,-4.537146E-4,-1.281234E-3,-3.0610527E-4,6.643771E-4,-5.124101E-4,-4.5965076E-4,-2.8029343E-3,-5.643026E-4,-1.3560285E-3,6.2809384E-4,-1.1311005E-3,-2.7259593E-3,-5.3048334E-3],"split_indices":[3,0,0,0,0,0,0,0,1,1,1,0,2,1,2,2,1,1,0,1,1,0,0,2,0,1,3,2,3,1,0,0,0,0,0,0,0,0,0,0,0,0,0,0,0,0,0,0,0,0,0,0,0,0,0,0,0,0,0,0,0,0,0],"split_type":[0,0,0,0,0,0,0,0,0,0,0,0,0,0,0,0,0,0,0,0,0,0,0,0,0,0,0,0,0,0,0,0,0,0,0,0,0,0,0,0,0,0,0,0,0,0,0,0,0,0,0,0,0,0,0,0,0,0,0,0,0,0,0],"sum_hessian":[1.175146E6,4.34519E5,7.40627E5,5.6676E4,3.77843E5,6.00241E5,1.40386E5,1.1787E4,4.4889E4,2.47086E5,1.30757E5,1.92555E5,4.07686E5,1.29218E5,1.1168E4,1.763E3,1.0024E4,3.6177E4,8.712E3,1.60444E5,8.6642E4,5.6843E4,7.3914E4,8.68E3,1.83875E5,8.3559E4,3.24127E5,8.465E3,1.20753E5,3.538E3,7.63E3,1.134E3,6.29E2,2.393E3,7.631E3,3.424E4,1.937E3,7.981E3,7.31E2,4.5657E4,1.14787E5,6.9978E4,1.6664E4,1.843E3,5.5E4,5.8843E4,1.5071E4,3.25E3,5.43E3,4.1199E4,1.42676E5,2.3381E4,6.0178E4,2.56618E5,6.7509E4,2.969E3,5.496E3,1.02453E5,1.83E4,1.753E3,1.785E3,5.704E3,1.926E3],"tree_param":{"num_deleted":"0","num_feature":"4","num_nodes":"63","size_leaf_vector":"1"}},{"base_weights":[-4.7779037E-7,3.5406714E-3,-2.078039E-3,-1.516664E-3,4.863245E-3,-1.1741449E-2,-1.0916056E-3,-8.892896E-3,-4.060315E-4,7.7748965E-3,9.027131E-4,-5.025988E-3,-1.6156375E-2,-7.5617046E-3,4.936323E-4,-1.2509568E-2,-6.1416654E-3,-1.829183E-3,5.3844503E-3,1.0498188E-2,3.2673958E-3,2.2373986E-3,-4.314308E-3,-5.352572E-4,-6.1392756E-3,-3.652501E-2,-1.4079549E-2,-5.249641E-3,-1.3283047E-2,2.452276E-3,-7.141615E-3,-6.9797115E-4,-1.4965825E-3,-2.920871E-4,-1.2994079E-3,-1.1776189E-4,-1.5970618E-3,-1.7356614E-4,8.5929426E-4,1.2689164E-4,1.4382241E-3,-5.27683E-5,7.2008005E-4,6.4227366E-5,8.592421E-4,-3.1780783E-4,-1.4045816E-3,-1.0991302E-4,2.9098496E-3,-1.7656799E-3,-4.925856E-4,-3.4167361E-3,-5.7709976E-3,-3.5759606E-3,-1.2036687E-3,-1.1044041E-3,4.1361793E-5,-1.3684012E-3,9.217383E-4,4.1614432E-4,-5.182163E-4,-1.3639895E-3,-4.8972643E-4],"categories":[],"categories_nodes":[],"categories_segments":[],"categories_sizes":[],"default_left":[0,0,0,0,0,0,0,0,0,0,0,0,0,0,0,0,0,0,0,0,0,0,0,0,0,0,0,0,0,0,0,0,0,0,0,0,0,0,0,0,0,0,0,0,0,0,0,0,0,0,0,0,0,0,0,0,0,0,0,0,0,0,0],"id":23,"left_children":[1,3,5,7,9,11,13,15,17,19,21,23,25,27,29,31,33,35,37,39,41,43,45,47,49,51,53,55,57,59,61,-1,-1,-1,-1,-1,-1,-1,-1,-1,-1,-1,-1,-1,-1,-1,-1,-1,-1,-1,-1,-1,-1,-1,-1,-1,-1,-1,-1,-1,-1,-1,-1],"loss_changes":[8.645512E0,2.9063802E0,7.059884E0,7.379408E-1,3.972003E0,2.0337906E0,6.892767E0,1.1721736E-1,6.4518505E-1,2.4366856E0,1.016181E0,1.3604242E-1,1.7503271E0,1.7493606E0,8.072266E0,6.9058836E-2,1.4776629E-1,5.790475E-1,3.528761E-1,4.435833E0,1.1160493E0,1.1780014E0,3.286867E-1,9.038118E-2,3.046648E-1,1.8927479E-1,1.6631227E0,3.090867E0,3.4351778E-1,5.605423E0,1.6071215E0,0E0,0E0,0E0,0E0,0E0,0E0,0E0,0E0,0E0,0E0,0E0,0E0,0E0,0E0,0E0,0E0,0E0,0E0,0E0,0E0,0E0,0E0,0E0,0E0,0E0,0E0,0E0,0E0,0E0,0E0,0E0,0E0],"parents":[2147483647,0,0,1,1,2,2,3,3,4,4,5,5,6,6,7,7,8,8,9,9,10,10,11,11,12,12,13,13,14,14,15,15,16,16,17,17,18,18,19,19,20,20,21,21,22,22,23,23,24,24,25,25,26,26,27,27,28,28,29,29,30,30],"right_children":[2,4,6,8,10,12,14,16,18,20,22,24,26,28,30,32,34,36,38,40,42,44,46,48,50,52,54,56,58,60,62,-1,-1,-1,-1,-1,-1,-1,-1,-1,-1,-1,-1,-1,-1,-1,-1,-1,-1,-1,-1,-1,-1,-1,-1,-1,-1,-1,-1,-1,-1,-1,-1],"split_conditions":[1E0,-4.761541E-1,1.3732648E0,-1.108955E0,2.885398E-1,2E0,1E0,-1.2903198E0,2E0,2.670241E0,9.289747E-1,-4.1400808E-1,5.4157734E-1,3.0213097E-1,3E0,1E0,2.6467633E0,-4.92751E-1,1.8632956E0,1.7578746E0,-7.3889785E-2,2E0,2.9239604E0,-4.21588E-1,-2.585533E-1,3E0,-8.169107E-1,-2.2595388E-1,3E0,3.0879147E0,2E0,-6.9797115E-4,-1.4965825E-3,-2.920871E-4,-1.2994079E-3,-1.1776189E-4,-1.5970618E-3,-1.7356614E-4,8.5929426E-4,1.2689164E-4,1.4382241E-3,-5.27683E-5,7.2008005E-4,6.4227366E-5,8.592421E-4,-3.1780783E-4,-1.4045816E-3,-1.0991302E-4,2.9098496E-3,-1.7656799E-3,-4.925856E-4,-3.4167361E-3,-5.7709976E-3,-3.5759606E-3,-1.2036687E-3,-1.1044041E-3,4.1361793E-5,-1.3684012E-3,9.217383E-4,4.1614432E-4,-5.182163E-4,-1.3639895E-3,-4.8972643E-4],"split_indices":[3,0,1,0,0,2,2,0,2,1,0,0,1,0,3,2,1,0,1,1,0,2,1,0,0,3,0,0,3,1,2,0,0,0,0,0,0,0,0,0,0,0,0,0,0,0,0,0,0,0,0,0,0,0,0,0,0,0,0,0,0,0,0],"split_type":[0,0,0,0,0,0,0,0,0,0,0,0,0,0,0,0,0,0,0,0,0,0,0,0,0,0,0,0,0,0,0,0,0,0,0,0,0,0,0,0,0,0,0,0,0,0,0,0,0,0,0,0,0,0,0,0,0,0,0,0,0,0,0],"sum_hessian":[1.175146E6,4.34519E5,7.40627E5,9.0077E4,3.44442E5,6.8599E4,6.72028E5,1.1787E4,7.829E4,1.98506E5,1.45936E5,2.7211E4,4.1388E4,1.3225E5,5.39778E5,5.091E3,6.696E3,6.2845E4,1.5445E4,1.23743E5,7.4763E4,1.16207E5,2.9729E4,5.406E3,2.1805E4,3.828E3,3.756E4,9.4189E4,3.8061E4,4.2958E5,1.10198E5,1.567E3,3.524E3,4.556E3,2.14E3,6.0078E4,2.767E3,4.798E3,1.0647E4,3.6652E4,8.7091E4,3.8051E4,3.6712E4,9.2892E4,2.3315E4,2.6622E4,3.107E3,5.306E3,1E2,2.077E3,1.9728E4,3.447E3,3.81E2,3.233E3,3.4327E4,4.6555E4,4.7634E4,3.7395E4,6.66E2,3.51E5,7.858E4,2.8288E4,8.191E4],"tree_param":{"num_deleted":"0","num_feature":"4","num_nodes":"63","size_leaf_vector":"1"}},{"base_weights":[-4.4726454E-7,-3.948608E-3,1.6366492E-3,-1.9625043E-3,-8.791015E-3,3.7850672E-3,-3.6868076E-3,-5.581559E-3,-3.8043657E-4,-5.8074538E-3,-1.3939881E-2,1.3071105E-3,8.697817E-3,-3.2710857E-3,-2.4880229E-2,-2.9269035E-3,-9.285112E-3,-2.4168359E-3,4.6639107E-3,-1.354685E-2,-1.3041776E-3,-6.577297E-3,-1.7333232E-2,3.0740027E-3,-5.4485067E-3,-7.1062474E-3,1.0089103E-2,-2.3314075E-3,-1.1632443E-2,3.2562923E-3,-3.5534758E-2,-5.172178E-4,-1.7194443E-4,-7.5772905E-4,-2.8076808E-3,-4.305837E-5,-5.170344E-4,6.1838754E-4,-3.7499312E-3,-3.707942E-3,-1.1769487E-3,-9.693837E-4,3.8192383E-4,-7.958437E-5,-2.1873089E-3,-1.5339316E-3,-4.0833782E-3,4.0836973E-4,-7.1040227E-4,-1.3115448E-4,-1.1041682E-3,-2.486544E-3,-2.7509415E-4,1.3779699E-3,2.7124194E-4,-6.3611416E-4,-1.0751946E-4,-1.0212166E-3,-2.2864076E-3,4.9285986E-4,-3.7412427E-3,-2.746633E-3,-5.4304097E-3],"categories":[],"categories_nodes":[],"categories_segments":[],"categories_sizes":[],"default_left":[0,0,0,0,0,0,0,0,0,0,0,0,0,0,0,0,0,0,0,0,0,0,0,0,0,0,0,0,0,0,0,0,0,0,0,0,0,0,0,0,0,0,0,0,0,0,0,0,0,0,0,0,0,0,0,0,0,0,0,0,0,0,0],"id":24,"left_children":[1,3,5,7,9,11,13,15,17,19,21,23,25,27,29,31,33,35,37,39,41,43,45,47,49,51,53,55,57,59,61,-1,-1,-1,-1,-1,-1,-1,-1,-1,-1,-1,-1,-1,-1,-1,-1,-1,-1,-1,-1,-1,-1,-1,-1,-1,-1,-1,-1,-1,-1,-1,-1],"loss_changes":[7.595593E0,3.3127189E0,9.50074E0,1.3985592E0,1.5389404E0,7.204874E0,2.104368E0,7.3046494E-1,1.7459537E0,2.2107203E0,9.1814184E-1,4.6959696E0,4.3632336E0,1.8405578E0,1.3776109E0,1.1732656E-1,9.9533963E-1,6.622312E-1,3.1329136E0,9.754462E-1,1.723684E0,1.0255275E0,1.1782303E0,3.2048273E0,1.8872516E0,1.2418106E0,4.9651127E0,1.066068E0,3.7730336E-1,8.608171E-2,5.032549E-1,0E0,0E0,0E0,0E0,0E0,0E0,0E0,0E0,0E0,0E0,0E0,0E0,0E0,0E0,0E0,0E0,0E0,0E0,0E0,0E0,0E0,0E0,0E0,0E0,0E0,0E0,0E0,0E0,0E0,0E0,0E0,0E0],"parents":[2147483647,0,0,1,1,2,2,3,3,4,4,5,5,6,6,7,7,8,8,9,9,10,10,11,11,12,12,13,13,14,14,15,15,16,16,17,17,18,18,19,19,20,20,21,21,22,22,23,23,24,24,25,25,26,26,27,27,28,28,29,29,30,30],"right_children":[2,4,6,8,10,12,14,16,18,20,22,24,26,28,30,32,34,36,38,40,42,44,46,48,50,52,54,56,58,60,62,-1,-1,-1,-1,-1,-1,-1,-1,-1,-1,-1,-1,-1,-1,-1,-1,-1,-1,-1,-1,-1,-1,-1,-1,-1,-1,-1,-1,-1,-1,-1,-1],"split_conditions":[1.9518869E0,2E0,2.9627268E0,1.3375335E0,3.0884087E-1,2E0,4.070963E0,2E0,2E0,-3.7727702E-1,2E0,2E0,-8.797117E-1,3E0,2E0,-9.2463374E-2,1.2108978E0,1E0,1.375676E0,-1.2312088E0,2E0,1.7876487E0,1.3075961E0,7.6939434E-1,2.5110018E0,-1.2903198E0,3.6349693E-1,-4.2901322E-1,3.633769E0,7.572159E-1,2E0,-5.172178E-4,-1.7194443E-4,-7.5772905E-4,-2.8076808E-3,-4.305837E-5,-5.170344E-4,6.1838754E-4,-3.7499312E-3,-3.707942E-3,-1.1769487E-3,-9.693837E-4,3.8192383E-4,-7.958437E-5,-2.1873089E-3,-1.5339316E-3,-4.0833782E-3,4.0836973E-4,-7.1040227E-4,-1.3115448E-4,-1.1041682E-3,-2.486544E-3,-2.7509415E-4,1.3779699E-3,2.7124194E-4,-6.3611416E-4,-1.0751946E-4,-1.0212166E-3,-2.2864076E-3,4.9285986E-4,-3.7412427E-3,-2.746633E-3,-5.4304097E-3],"split_indices":[1,3,1,1,0,2,1,2,2,0,2,3,0,3,2,0,0,3,0,0,2,1,0,0,1,0,0,0,1,0,3,0,0,0,0,0,0,0,0,0,0,0,0,0,0,0,0,0,0,0,0,0,0,0,0,0,0,0,0,0,0,0,0],"split_type":[0,0,0,0,0,0,0,0,0,0,0,0,0,0,0,0,0,0,0,0,0,0,0,0,0,0,0,0,0,0,0,0,0,0,0,0,0,0,0,0,0,0,0,0,0,0,0,0,0,0,0,0,0,0,0,0,0,0,0,0,0,0,0],"sum_hessian":[1.175146E6,3.44447E5,8.30699E5,2.44264E5,1.00183E5,5.91845E5,2.38854E5,7.4299E4,1.69965E5,6.343E4,3.6753E4,3.93412E5,1.98433E5,2.3426E5,4.594E3,4.3279E4,3.102E4,1.21084E5,4.8881E4,2.3331E4,4.0099E4,1.1596E4,2.5157E4,3.1185E5,8.1562E4,1.6055E4,1.82378E5,2.10594E5,2.3666E4,1.262E3,3.332E3,1.5134E4,2.8145E4,2.8437E4,2.583E3,7.0343E4,5.0741E4,4.7181E4,1.7E3,1.637E3,2.1694E4,1.5203E4,2.4896E4,8.416E3,3.18E3,2.3191E4,1.966E3,2.83706E5,2.8144E4,4.6885E4,3.4677E4,3.161E3,1.2894E4,1.2156E5,6.0818E4,5.0047E4,1.60547E5,2.1011E4,2.655E3,1.213E3,4.9E1,2.332E3,1E3],"tree_param":{"num_deleted":"0","num_feature":"4","num_nodes":"63","size_leaf_vector":"1"}},{"base_weights":[-4.35633E-7,-7.787802E-3,7.324612E-4,-1.748242E-2,-6.258567E-3,2.784142E-3,-3.3669968E-3,-9.555925E-3,-2.5087249E-2,-5.2984846E-3,-1.5263101E-2,-1.1235039E-3,5.435094E-3,6.387224E-4,-5.7645864E-3,-2.4353388E-4,-1.460709E-2,-3.616353E-2,-6.528723E-3,-4.5527965E-3,-1.1296464E-2,-2.2183953E-2,-9.51198E-3,2.3901972E-3,-3.164535E-3,6.3385987E-3,-7.4802814E-3,-2.308994E-3,2.8894464E-3,-9.297026E-3,-2.1009273E-3,-1.14370545E-4,4.743018E-3,-1.6012824E-3,1.0668078E-3,-3.271938E-3,-6.58156E-3,-1.7899007E-3,-2.8026463E-5,-6.800164E-4,-2.000553E-4,-9.1310963E-4,-1.8226247E-3,-2.0380593E-3,-7.047582E-3,6.125734E-4,-1.6044859E-3,1.223641E-4,7.590707E-4,-1.0047558E-3,-1.4573103E-4,3.849751E-4,1.1108537E-3,-4.7464907E-4,-1.4732998E-3,-1.1719087E-4,-6.2474963E-4,5.9652975E-4,-1.5646954E-4,-8.304206E-4,-2.260062E-3,-1.0672634E-3,-2.0126208E-5],"categories":[],"categories_nodes":[],"categories_segments":[],"categories_sizes":[],"default_left":[0,0,0,0,0,0,0,0,0,0,0,0,0,0,0,0,0,0,0,0,0,0,0,0,0,0,0,0,0,0,0,0,0,0,0,0,0,0,0,0,0,0,0,0,0,0,0,0,0,0,0,0,0,0,0,0,0,0,0,0,0,0,0],"id":25,"left_children":[1,3,5,7,9,11,13,15,17,19,21,23,25,27,29,31,33,35,37,39,41,43,45,47,49,51,53,55,57,59,61,-1,-1,-1,-1,-1,-1,-1,-1,-1,-1,-1,-1,-1,-1,-1,-1,-1,-1,-1,-1,-1,-1,-1,-1,-1,-1,-1,-1,-1,-1,-1,-1],"loss_changes":[6.7069645E0,1.498496E0,9.033724E0,8.2993174E-1,7.5474834E-1,7.4151297E0,3.4406524E0,3.1727058E-1,1.4444361E0,3.5284734E-1,3.346088E-1,2.0749588E0,4.9767704E0,8.89958E-1,2.9003353E0,1.0189041E-1,1.5554416E-1,4.473033E-1,1.8670584E-1,4.0252113E-1,1.3074183E-1,3.309772E-1,4.696224E-1,6.4495224E-1,2.1506174E0,4.732031E0,5.5281734E-1,2.600899E-1,1.0420933E0,1.5068274E0,1.7913808E0,0E0,0E0,0E0,0E0,0E0,0E0,0E0,0E0,0E0,0E0,0E0,0E0,0E0,0E0,0E0,0E0,0E0,0E0,0E0,0E0,0E0,0E0,